{"learner":{"attributes":{"scikit_learn":"{\"_estimator_type\": \"classifier\"}"},"feature_names":["Type","Air temperature K","Process temperature K","Rotational speed rpm","Torque Nm","Tool wear min"],"feature_types":["int","float","float","int","float","int"],"gradient_booster":{"model":{"cats":{"enc":[],"feature_segments":[],"sorted_idx":[]},"gbtree_model_param":{"num_parallel_tree":"1","num_trees":"100"},"iteration_indptr":[0,1,2,3,4,5,6,7,8,9,10,11,12,13,14,15,16,17,18,19,20,21,22,23,24,25,26,27,28,29,30,31,32,33,34,35,36,37,38,39,40,41,42,43,44,45,46,47,48,49,50,51,52,53,54,55,56,57,58,59,60,61,62,63,64,65,66,67,68,69,70,71,72,73,74,75,76,77,78,79,80,81,82,83,84,85,86,87,88,89,90,91,92,93,94,95,96,97,98,99,100],"tree_info":[0,0,0,0,0,0,0,0,0,0,0,0,0,0,0,0,0,0,0,0,0,0,0,0,0,0,0,0,0,0,0,0,0,0,0,0,0,0,0,0,0,0,0,0,0,0,0,0,0,0,0,0,0,0,0,0,0,0,0,0,0,0,0,0,0,0,0,0,0,0,0,0,0,0,0,0,0,0,0,0,0,0,0,0,0,0,0,0,0,0,0,0,0,0,0,0,0,0,0,0],"trees":[{"base_weights":[2.6002667E-8,-2.5567922E-1,1.0716295E1,2.61636E0,-6.6112775E-1,4.228455E0,1.2843013E0,5.2024934E-2,9.393158E0,1.0944422E0,-7.589906E-1,-3.787106E-3,6.458492E-1,-9.8846994E-2,5.635664E0,1.2491772E1,1.2069579E0,-9.4872797E-1,2.2410471E0,7.7038336E-1,-5.4018637E-3,3.442217E-1,1.3991717E0,-5.998341E-2,2.604271E-1,-9.7570723E-1,1.3802753E-1,1.3437437E0,6.9569296E-1,-9.8911725E-2,2.4660632E-2,5.6999087E-2,3.9567223E-1],"categories":[],"categories_nodes":[],"categories_segments":[],"categories_sizes":[],"default_left":[0,0,0,0,0,0,0,0,0,0,0,0,0,0,0,0,0,0,0,0,0,0,0,0,0,0,0,0,0,0,0,0,0],"id":0,"left_children":[1,3,5,7,9,11,-1,13,15,-1,17,-1,-1,-1,19,21,23,25,27,-1,-1,-1,-1,-1,-1,29,-1,31,-1,-1,-1,-1,-1],"loss_changes":[7.407125E2,3.091946E2,3.2615967E1,5.706442E2,2.7199936E2,2.922527E1,0E0,1.4993521E2,2.1363794E2,0E0,1.3371156E2,0E0,0E0,0E0,4.810121E1,3.91698E1,1.0607378E1,1.5052292E1,5.0096893E1,0E0,0E0,0E0,0E0,0E0,0E0,3.7878265E0,0E0,2.411248E1,0E0,0E0,0E0,0E0,0E0],"parents":[2147483647,0,0,1,1,2,2,3,3,4,4,5,5,7,7,8,8,10,10,14,14,15,15,16,16,17,17,18,18,25,25,27,27],"right_children":[2,4,6,8,10,12,-1,14,16,-1,18,-1,-1,-1,20,22,24,26,28,-1,-1,-1,-1,-1,-1,30,-1,32,-1,-1,-1,-1,-1],"split_conditions":[6.07E1,1.38E3,6.23E1,3.016E2,1.38E1,9.9E1,1.2843013E0,1.89E2,3.119E2,1.0944422E0,2.05E2,-3.787106E-3,6.458492E-1,-9.8846994E-2,1E0,3.02E2,3.035E2,5.61E1,4.97E1,7.7038336E-1,-5.4018637E-3,3.442217E-1,1.3991717E0,-5.998341E-2,2.604271E-1,2.03E2,1.3802753E-1,2.25E2,6.9569296E-1,-9.8911725E-2,2.4660632E-2,5.6999087E-2,3.9567223E-1],"split_indices":[4,3,4,1,4,5,0,5,2,0,5,0,0,0,0,1,1,4,4,0,0,0,0,0,0,5,0,5,0,0,0,0,0],"split_type":[0,0,0,0,0,0,0,0,0,0,0,0,0,0,0,0,0,0,0,0,0,0,0,0,0,0,0,0,0,0,0,0,0],"sum_hessian":[2.683395E2,2.630398E2,5.2997055E0,3.1865318E1,2.311745E2,2.0460887E0,3.2536166E0,2.3848675E1,8.016643E0,1.0062732E0,2.3016821E2,1.0398157E0,1.0062732E0,2.0796312E1,3.052362E0,5.433875E0,2.5827677E0,2.1712021E2,1.3048009E1,1.9790039E0,1.073358E0,1.2410703E0,4.192805E0,1.37524E0,1.2075279E0,2.152083E2,1.911919E0,1.2041736E1,1.0062732E0,2.1306157E2,2.146716E0,1.0230444E1,1.8112917E0],"tree_param":{"num_deleted":"0","num_feature":"6","num_nodes":"33","size_leaf_vector":"1"}},{"base_weights":[-2.1174336E-2,2.2194095E0,-5.9809923E-1,1.4030929E0,5.3882074E0,5.5329686E-1,-6.9884926E-1,-9.430802E-2,3.3889434E0,1.9529194E0,7.8323727E0,-8.977885E-1,1.8024809E0,-9.866041E-2,2.9545727E0,6.145364E-1,1.9821153E0,-1.9076856E-2,3.76102E-1,8.759002E-1,2.7080932E-1,-9.6183664E-1,3.941105E-1,1.1333518E0,5.1010364E-1,3.4627434E-2,3.4426262E0,9.572687E-2,3.857693E0,-6.882309E-2,9.225092E-2,-9.906833E-1,-1.13221996E-1,5.306092E-1,2.8481585E-1,9.848536E-2,4.096716E-1,1.8204421E-1,-6.472514E-2,5.781058E-1,-1.4679437E-2,1.11123E-2,-1.00086026E-1,9.088689E-2,-8.279105E-2,8.5716814E-2,-1.753848E-2],"categories":[],"categories_nodes":[],"categories_segments":[],"categories_sizes":[],"default_left":[0,0,0,0,0,0,0,0,0,0,0,0,0,0,0,0,0,0,0,0,0,0,0,0,0,0,0,0,0,0,0,0,0,0,0,0,0,0,0,0,0,0,0,0,0,0,0],"id":1,"left_children":[1,3,5,7,9,-1,11,13,15,17,19,21,23,-1,25,-1,27,29,-1,-1,-1,31,-1,33,-1,-1,35,37,39,-1,-1,41,43,45,-1,-1,-1,-1,-1,-1,-1,-1,-1,-1,-1,-1,-1],"loss_changes":[3.537821E2,1.3740985E2,1.382901E2,1.3685464E2,7.813876E1,0E0,1.08598564E2,7.67767E1,6.446608E1,2.1316078E1,5.575714E0,6.571794E1,2.9911598E1,0E0,6.951462E0,0E0,5.1153927E1,3.057429E0,0E0,0E0,0E0,4.7350464E0,0E0,1.3713303E1,0E0,0E0,4.448677E0,1.1795903E1,5.6894768E1,0E0,0E0,2.2570496E0,6.332294E0,2.9464018E0,0E0,0E0,0E0,0E0,0E0,0E0,0E0,0E0,0E0,0E0,0E0,0E0,0E0],"parents":[2147483647,0,0,1,1,2,2,3,3,4,4,6,6,7,7,8,8,9,9,10,10,11,11,12,12,14,14,16,16,17,17,21,21,23,23,26,26,27,27,28,28,31,31,32,32,33,33],"right_children":[2,4,6,8,10,-1,12,14,16,18,20,22,24,-1,26,-1,28,30,-1,-1,-1,32,-1,34,-1,-1,36,38,40,-1,-1,42,44,46,-1,-1,-1,-1,-1,-1,-1,-1,-1,-1,-1,-1,-1],"split_conditions":[1.382E3,1.87E2,1.38E1,3.016E2,5.37E1,5.5329686E-1,2.05E2,6.23E1,3.108E2,2.07E2,1E0,5.79E1,5.02E1,-9.866041E-2,1.246E3,6.145364E-1,3.026E2,3.008E2,3.76102E-1,8.759002E-1,2.7080932E-1,1.98E2,3.941105E-1,2.25E2,5.1010364E-1,3.4627434E-2,6.37E1,3.11E2,3.123E2,-6.882309E-2,9.225092E-2,1.72E1,3.097E2,4.2E1,2.8481585E-1,9.848536E-2,4.096716E-1,1.8204421E-1,-6.472514E-2,5.781058E-1,-1.4679437E-2,1.11123E-2,-1.00086026E-1,9.088689E-2,-8.279105E-2,8.5716814E-2,-1.753848E-2],"split_indices":[3,5,4,1,4,0,5,4,2,5,0,4,4,0,3,0,1,1,0,0,0,5,0,5,0,0,4,2,2,0,0,4,2,4,0,0,0,0,0,0,0,0,0,0,0,0,0],"split_type":[0,0,0,0,0,0,0,0,0,0,0,0,0,0,0,0,0,0,0,0,0,0,0,0,0,0,0,0,0,0,0,0,0,0,0,0,0,0,0,0,0,0,0,0,0,0,0],"sum_hessian":[2.7166086E2,5.5043457E1,2.166174E2,4.4915516E1,1.0127939E1,2.6303701E0,2.1398703E2,2.6150007E1,1.876551E1,4.958189E0,5.1697507E0,1.9881561E2,1.5171407E1,2.075282E1,5.3971877E0,5.202984E0,1.3562528E1,2.8448818E0,2.1133072E0,3.7773705E0,1.39238E0,1.9700922E2,1.8064075E0,1.372983E1,1.4415771E0,1.1201711E0,4.2770166E0,7.2857857E0,6.276742E0,1.8203162E0,1.0245656E0,1.9037059E2,6.6386166E0,1.1127883E1,2.6019464E0,1.4256723E0,2.8513446E0,1.7569915E0,5.528794E0,3.9404764E0,2.3362656E0,1.6515009E0,1.887191E2,2.6200004E0,4.018616E0,7.46213E0,3.6657531E0],"tree_param":{"num_deleted":"0","num_feature":"6","num_nodes":"47","size_leaf_vector":"1"}},{"base_weights":[-1.9270936E-2,1.7330363E0,-5.719231E-1,8.099585E-1,2.7906473E0,3.406797E-1,-6.875601E-1,-1.824228E-2,3.1984854E0,4.3296057E-1,2.198128E0,-9.08615E-1,1.3046657E0,-8.452386E-1,2.3068383E0,7.6415896E-1,4.466237E-1,1.0693766E0,3.2121158E0,-9.78899E-1,2.9686707E-1,6.0726136E-1,3.0290003E0,-9.791905E-2,7.4808985E-2,1.2596825E0,3.3980733E-1,-4.146041E-1,2.0643054E-1,2.2973046E0,-1.5503122E-1,4.259281E0,1.1537201E0,-9.948412E-2,-2.7510202E-1,9.593995E-1,-5.6602156E-1,4.3675023E-1,3.1061534E-2,1.0011361E-2,2.7431604E-1,-4.6940153E-3,-5.6791212E-2,1.3972014E-2,3.4067136E-1,-6.263819E-2,1.3729434E-1,1.3206668E-1,4.5336863E-1,-4.2470735E-2,2.4491613E-1,9.520749E-2,-7.912488E-2,-3.6131512E-2,1.2427286E-1,-7.187817E-2,-5.2169585E-3],"categories":[],"categories_nodes":[],"categories_segments":[],"categories_sizes":[],"default_left":[0,0,0,0,0,0,0,0,0,0,0,0,0,0,0,0,0,0,0,0,0,0,0,0,0,0,0,0,0,0,0,0,0,0,0,0,0,0,0,0,0,0,0,0,0,0,0,0,0,0,0,0,0,0,0,0,0],"id":2,"left_children":[1,3,5,7,9,-1,11,13,15,-1,17,19,21,23,25,27,-1,29,31,33,-1,35,37,-1,-1,39,-1,41,-1,43,45,47,49,-1,51,53,55,-1,-1,-1,-1,-1,-1,-1,-1,-1,-1,-1,-1,-1,-1,-1,-1,-1,-1,-1,-1],"loss_changes":[2.6084506E2,6.0790665E1,9.654262E1,7.106409E1,1.755606E1,0E0,8.91729E1,5.5110725E1,2.512542E1,0E0,2.3424881E1,5.207483E1,2.2651012E1,5.241293E0,4.3146286E0,7.5579166E0,0E0,1.9306849E1,2.0657097E1,1.7231293E0,0E0,7.0508084E0,1.9070145E1,0E0,0E0,9.061752E0,0E0,1.4956206E-1,0E0,1.473904E1,6.080145E0,5.3512573E-2,1.20239935E1,0E0,4.125703E0,5.121319E0,2.9729295E-1,0E0,0E0,0E0,0E0,0E0,0E0,0E0,0E0,0E0,0E0,0E0,0E0,0E0,0E0,0E0,0E0,0E0,0E0,0E0,0E0],"parents":[2147483647,0,0,1,1,2,2,3,3,4,4,6,6,7,7,8,8,10,10,11,11,12,12,13,13,14,14,15,15,17,17,18,18,19,19,21,21,22,22,25,25,27,27,29,29,30,30,31,31,32,32,34,34,35,35,36,36],"right_children":[2,4,6,8,10,-1,12,14,16,-1,18,20,22,24,26,28,-1,30,32,34,-1,36,38,-1,-1,40,-1,42,-1,44,46,48,50,-1,52,54,56,-1,-1,-1,-1,-1,-1,-1,-1,-1,-1,-1,-1,-1,-1,-1,-1,-1,-1,-1,-1],"split_conditions":[1.382E3,3.016E2,1.58E1,1.91E2,3.106E2,3.406797E-1,2.03E2,6.23E1,5.3E1,4.3296057E-1,3.026E2,5.79E1,4.59E1,1.87E2,6.68E1,2.13E2,4.466237E-1,3.11E2,3.121E2,1.98E2,2.9686707E-1,4.2E1,1E0,-9.791905E-2,7.4808985E-2,1.332E3,3.3980733E-1,4.89E1,2.0643054E-1,3.021E2,6.01E1,3.027E2,5.61E1,-9.948412E-2,2.986E2,2.979E2,3.015E2,4.3675023E-1,3.1061534E-2,1.0011361E-2,2.7431604E-1,-4.6940153E-3,-5.6791212E-2,1.3972014E-2,3.4067136E-1,-6.263819E-2,1.3729434E-1,1.3206668E-1,4.5336863E-1,-4.2470735E-2,2.4491613E-1,9.520749E-2,-7.912488E-2,-3.6131512E-2,1.2427286E-1,-7.187817E-2,-5.2169585E-3],"split_indices":[3,1,4,5,2,0,5,4,4,0,1,4,4,5,4,5,0,2,2,5,0,4,0,0,0,3,0,4,0,1,4,1,4,0,1,1,1,0,0,0,0,0,0,0,0,0,0,0,0,0,0,0,0,0,0,0,0],"split_type":[0,0,0,0,0,0,0,0,0,0,0,0,0,0,0,0,0,0,0,0,0,0,0,0,0,0,0,0,0,0,0,0,0,0,0,0,0,0,0,0,0,0,0,0,0,0,0,0,0,0,0,0,0,0,0,0,0],"sum_hessian":[2.673287E2,6.3584373E1,2.0374432E2,3.489448E1,2.8689892E1,4.9505258E0,1.9879381E2,2.6647171E1,8.247312E0,6.222083E0,2.246781E1,1.7942856E2,1.9365253E1,2.0125353E1,6.521817E0,3.3730931E0,4.874218E0,1.1604515E1,1.0863295E1,1.7696815E2,2.4603927E0,1.475129E1,4.613963E0,1.892017E1,1.2051845E0,4.4275126E0,2.0943048E0,2.1263614E0,1.2467318E0,5.3564286E0,6.248086E0,6.4916043E0,4.3716903E0,1.7264395E2,4.324213E0,1.1486218E1,3.2650714E0,2.6851654E0,1.928798E0,3.0842087E0,1.3433037E0,1.0101051E0,1.1162561E0,2.2012894E0,3.155139E0,5.226018E0,1.0220684E0,1.0508498E0,5.4407544E0,2.2735906E0,2.0980995E0,1.0302162E0,3.2939968E0,1.9802413E0,9.505978E0,2.2094312E0,1.0556401E0],"tree_param":{"num_deleted":"0","num_feature":"6","num_nodes":"57","size_leaf_vector":"1"}},{"base_weights":[-1.4055366E-2,1.4318576E0,-5.617576E-1,9.2923254E-1,2.8026724E0,2.5254512E0,-6.8046266E-1,-4.1408625E-2,2.0209835E0,1.4040874E0,3.3703324E-1,2.8178447E-1,6.925732E-2,-8.902735E-1,1.1247218E0,-6.71515E-1,2.186413E0,2.9987118E-1,1.1343524E0,1.9482778E-1,2.2069314E0,-9.5981413E-1,2.7497113E-1,5.3132534E-1,2.3619335E0,-8.099362E-1,4.764315E-1,2.3732508E-2,2.5802022E-1,-5.898862E-1,2.0324297E0,-3.3184376E-2,8.049978E-2,7.400652E-2,2.9228485E-1,-9.8215467E-1,-3.6284897E-1,8.5321856E-1,-7.438198E-2,3.183149E-1,3.360422E-2,-9.768997E-2,5.5801596E-2,1.3311116E-1,-5.811109E-2,-8.800124E-2,2.7175236E-2,2.792281E-1,-1.9910334E-2,-9.880558E-2,-7.4241655E-3,2.3905795E-2,-8.044317E-2,1.5766157E-2,1.628903E-1],"categories":[],"categories_nodes":[],"categories_segments":[],"categories_sizes":[],"default_left":[0,0,0,0,0,0,0,0,0,0,0,0,0,0,0,0,0,0,0,0,0,0,0,0,0,0,0,0,0,0,0,0,0,0,0,0,0,0,0,0,0,0,0,0,0,0,0,0,0,0,0,0,0,0,0],"id":3,"left_children":[1,3,5,7,9,11,13,15,17,19,-1,-1,-1,21,23,25,27,-1,29,31,33,35,-1,37,39,41,43,-1,-1,45,47,-1,-1,-1,-1,49,51,53,-1,-1,-1,-1,-1,-1,-1,-1,-1,-1,-1,-1,-1,-1,-1,-1,-1],"loss_changes":[2.0820903E2,4.7164276E1,7.159103E1,5.7677475E1,1.0259567E1,1.9456558E0,7.083979E1,4.3230644E1,1.8789696E1,6.5268593E0,0E0,0E0,0E0,4.4595383E1,1.3165159E1,4.192507E0,4.602413E0,0E0,2.4477983E1,1.5384331E0,2.2577667E0,1.8226166E0,0E0,6.6130233E0,9.040047E0,5.512472E0,3.6726165E0,0E0,0E0,1.7199461E0,1.7698345E1,0E0,0E0,0E0,0E0,7.673187E-1,2.1803744E0,6.268901E0,0E0,0E0,0E0,0E0,0E0,0E0,0E0,0E0,0E0,0E0,0E0,0E0,0E0,0E0,0E0,0E0,0E0],"parents":[2147483647,0,0,1,1,2,2,3,3,4,4,5,5,6,6,7,7,8,8,9,9,13,13,14,14,15,15,16,16,18,18,19,19,20,20,21,21,23,23,24,24,25,25,26,26,29,29,30,30,35,35,36,36,37,37],"right_children":[2,4,6,8,10,12,14,16,18,20,-1,-1,-1,22,24,26,28,-1,30,32,34,36,-1,38,40,42,44,-1,-1,46,48,-1,-1,-1,-1,50,52,54,-1,-1,-1,-1,-1,-1,-1,-1,-1,-1,-1,-1,-1,-1,-1,-1,-1],"split_conditions":[1.386E3,1.87E2,1.58E1,3.019E2,5.33E1,1.38E1,2.05E2,6.37E1,3.11E2,2.07E2,3.3703324E-1,2.8178447E-1,6.925732E-2,5.85E1,4.53E1,3.016E2,1.246E3,2.9987118E-1,3.026E2,3.012E2,1.36E3,1.98E2,2.7497113E-1,4.2E1,1E0,6.23E1,3.106E2,2.3732508E-2,2.5802022E-1,3.118E2,3.123E2,-3.3184376E-2,8.049978E-2,7.400652E-2,2.9228485E-1,5.65E1,3.097E2,3.105E2,-7.438198E-2,3.183149E-1,3.360422E-2,-9.768997E-2,5.5801596E-2,1.3311116E-1,-5.811109E-2,-8.800124E-2,2.7175236E-2,2.792281E-1,-1.9910334E-2,-9.880558E-2,-7.4241655E-3,2.3905795E-2,-8.044317E-2,1.5766157E-2,1.628903E-1],"split_indices":[3,5,4,1,4,4,5,4,2,5,0,0,0,4,4,1,3,0,1,1,3,5,0,4,0,4,2,0,0,2,2,0,0,0,0,4,2,2,0,0,0,0,0,0,0,0,0,0,0,0,0,0,0,0,0],"split_type":[0,0,0,0,0,0,0,0,0,0,0,0,0,0,0,0,0,0,0,0,0,0,0,0,0,0,0,0,0,0,0,0,0,0,0,0,0,0,0,0,0,0,0,0,0,0,0,0,0,0,0,0,0,0,0],"sum_hessian":[2.608978E2,7.123248E1,1.8966531E2,5.3349236E1,1.7883245E1,6.271994E0,1.8339333E2,2.8750313E1,2.4598923E1,6.165736E0,1.1717509E1,4.9456425E0,1.3263516E0,1.6475159E2,1.8641731E1,2.2956099E1,5.7942147E0,1.0565606E1,1.4033316E1,2.9560084E0,3.2097275E0,1.6238559E2,2.366006E0,1.3565058E1,5.076673E0,2.0748642E1,2.2074564E0,1.2432629E0,4.5509515E0,4.9235845E0,9.109732E0,1.8313845E0,1.1246239E0,1.7197683E0,1.4899594E0,1.5590579E2,6.4797983E0,1.1095127E1,2.4699304E0,3.2058966E0,1.8707765E0,1.8746439E1,2.0022035E0,1.077756E0,1.1297004E0,3.667395E0,1.2561891E0,6.6082854E0,2.5014465E0,1.548113E2,1.0944872E0,2.936198E0,3.5436006E0,6.484091E0,4.611037E0],"tree_param":{"num_deleted":"0","num_feature":"6","num_nodes":"55","size_leaf_vector":"1"}},{"base_weights":[-1.1400021E-2,1.2284585E0,-5.378382E-1,8.6625344E-1,2.382874E0,-7.4887913E-1,1.0161887E0,-6.0147E-2,1.6153097E0,1.2428594E0,2.8285127E0,2.2708116E-1,-8.654849E-1,7.3445994E-1,2.5707272E-1,-8.729295E-1,1.3294882E0,2.704774E-1,1.202761E0,-9.610953E-3,1.8661547E0,3.1072977E-1,1.2070607E0,-9.448115E-1,2.0251308E-1,3.156197E-1,1.9211032E0,-9.7373344E-2,3.1152133E-2,6.4942497E-1,2.3181848E-1,1.7578894E-1,1.6819243E0,6.6842906E-2,2.397772E-1,-2.4568906E-2,2.2947887E-1,2.7552346E-2,-9.573402E-1,9.738874E-2,1.6493483E-1,3.1946808E-2,2.342114E-1,-9.248107E-3,1.8197457E-1,1.2061777E-1,-9.155261E-2,2.0601192E-1,-2.5512327E-2,-9.819944E-2,-3.3884283E-2,5.4166973E-2,-4.7193505E-2],"categories":[],"categories_nodes":[],"categories_segments":[],"categories_sizes":[],"default_left":[0,0,0,0,0,0,0,0,0,0,0,0,0,0,0,0,0,0,0,0,0,0,0,0,0,0,0,0,0,0,0,0,0,0,0,0,0,0,0,0,0,0,0,0,0,0,0,0,0,0,0,0,0],"id":4,"left_children":[1,3,5,7,9,11,13,15,17,19,21,-1,23,25,-1,27,29,-1,31,-1,33,-1,35,37,-1,39,41,-1,-1,43,-1,45,47,-1,-1,-1,-1,-1,49,51,-1,-1,-1,-1,-1,-1,-1,-1,-1,-1,-1,-1,-1],"loss_changes":[1.669671E2,2.9816528E1,5.964654E1,4.146002E1,5.4452286E0,5.7830597E1,7.6997433E0,3.234859E1,1.1576225E1,5.805089E0,1.6272202E0,0E0,3.7107277E1,9.300797E0,0E0,2.4556293E0,5.6127357E0,0E0,1.2366997E1,0E0,1.3572083E0,0E0,5.9058857E0,2.558136E0,0E0,4.475879E0,2.6257496E0,0E0,0E0,6.82052E0,0E0,1.156564E1,1.3293934E1,0E0,0E0,0E0,0E0,0E0,1.935669E0,3.9871154E0,0E0,0E0,0E0,0E0,0E0,0E0,0E0,0E0,0E0,0E0,0E0,0E0,0E0],"parents":[2147483647,0,0,1,1,2,2,3,3,4,4,5,5,6,6,7,7,8,8,9,9,10,10,12,12,13,13,15,15,16,16,18,18,20,20,22,22,23,23,25,25,26,26,29,29,31,31,32,32,38,38,39,39],"right_children":[2,4,6,8,10,12,14,16,18,20,22,-1,24,26,-1,28,30,-1,32,-1,34,-1,36,38,-1,40,42,-1,-1,44,-1,46,48,-1,-1,-1,-1,-1,50,52,-1,-1,-1,-1,-1,-1,-1,-1,-1,-1,-1,-1,-1],"split_conditions":[1.386E3,1.94E2,2.05E2,3.014E2,5.33E1,1.38E1,5.2E1,6.07E1,3.105E2,2.07E2,1E0,2.2708116E-1,5.79E1,2.25E2,2.5707272E-1,3.116E2,6.68E1,2.704774E-1,3.023E2,-9.610953E-3,1.36E3,3.1072977E-1,6.01E1,1.58E1,2.0251308E-1,1.895E3,2.992E2,-9.7373344E-2,3.1152133E-2,1.338E3,2.3181848E-1,3.108E2,3.123E2,6.6842906E-2,2.397772E-1,-2.4568906E-2,2.2947887E-1,2.7552346E-2,1.98E2,1.532E3,1.6493483E-1,3.1946808E-2,2.342114E-1,-9.248107E-3,1.8197457E-1,1.2061777E-1,-9.155261E-2,2.0601192E-1,-2.5512327E-2,-9.819944E-2,-3.3884283E-2,5.4166973E-2,-4.7193505E-2],"split_indices":[3,5,5,1,4,4,4,4,2,5,0,0,4,5,0,2,4,0,1,0,3,0,4,4,0,3,1,0,0,3,0,2,2,0,0,0,0,0,5,3,0,0,0,0,0,0,0,0,0,0,0,0,0],"split_type":[0,0,0,0,0,0,0,0,0,0,0,0,0,0,0,0,0,0,0,0,0,0,0,0,0,0,0,0,0,0,0,0,0,0,0,0,0,0,0,0,0,0,0,0,0,0,0,0,0,0,0,0,0],"sum_hessian":[2.5379413E2,7.524495E1,1.7854918E2,5.8607018E1,1.663793E1,1.5765704E2,2.0892136E1,2.661296E1,3.1994057E1,5.740852E0,1.08970785E1,5.174737E0,1.524823E2,1.8933315E1,1.9588202E0,1.7026295E1,9.586667E0,7.261508E0,2.4732548E1,2.0921915E0,3.6486607E0,8.516434E0,2.3806446E0,1.490647E2,3.4176087E0,1.492968E1,4.003636E0,1.5854854E1,1.1714407E0,6.6614904E0,2.9251764E0,8.303292E0,1.6429256E1,1.8155665E0,1.833094E0,1.3507429E0,1.0299016E0,1.3015139E0,1.4776318E2,1.3752458E1,1.1772225E0,1.1994452E0,2.8041906E0,4.640621E0,2.020869E0,4.2167263E0,4.0865655E0,1.3692381E1,2.7368758E0,1.4153374E2,6.2294474E0,7.751794E0,6.0006638E0],"tree_param":{"num_deleted":"0","num_feature":"6","num_nodes":"53","size_leaf_vector":"1"}},{"base_weights":[-5.8577443E-3,1.0830537E0,-5.135624E-1,7.2340834E-1,1.9267956E0,-7.3094976E-1,8.911519E-1,-2.285852E-1,1.3138466E0,1.3199052E0,2.3766375E-1,1.9035439E-1,-8.5111463E-1,6.8878067E-1,2.5224337E-1,-9.581971E-2,1.1624423E0,1.4217908E0,-3.655913E-2,-1.2555748E-1,1.7964872E0,-9.3520635E-1,1.667338E0,3.609907E-1,1.5768856E0,4.2593202E-1,1.9625719E-1,8.560222E-1,1.9108132E0,-6.8497874E-2,6.0900535E-2,1.976603E0,7.9692626E-1,2.5609214E-2,-9.4878757E-1,8.4679526E-1,2.1575797E-1,1.7902386E-1,1.4610307E-1,6.8376774E-1,2.30503E-1,-2.838239E-2,1.7992584E-1,1.5485714E-1,-1.4581302E-2,2.0237195E-1,4.032759E-2,2.5514635E-1,8.318338E-2,1.3113223E-1,-1.0084091E-2,-9.756201E-2,-3.186464E-2,-2.6779225E-2,1.7911457E-1,5.7502903E-2,-4.48423E-2,-7.095656E-2,2.2644079E-1],"categories":[],"categories_nodes":[],"categories_segments":[],"categories_sizes":[],"default_left":[0,0,0,0,0,0,0,0,0,0,0,0,0,0,0,0,0,0,0,0,0,0,0,0,0,0,0,0,0,0,0,0,0,0,0,0,0,0,0,0,0,0,0,0,0,0,0,0,0,0,0,0,0,0,0,0,0,0,0],"id":5,"left_children":[1,3,5,7,9,11,13,15,17,19,-1,-1,21,23,-1,-1,25,27,-1,29,31,33,35,37,39,41,-1,43,45,-1,-1,47,49,-1,51,53,-1,55,-1,57,-1,-1,-1,-1,-1,-1,-1,-1,-1,-1,-1,-1,-1,-1,-1,-1,-1,-1,-1],"loss_changes":[1.3697276E2,2.251368E1,5.2248413E1,3.2250435E1,3.1271515E0,4.8116035E1,5.8867893E0,2.4061455E1,6.906639E0,8.503529E0,0E0,0E0,3.1453552E1,5.812416E0,0E0,0E0,4.01466E0,7.579651E0,0E0,2.0256357E0,6.35376E-2,2.463356E0,1.5223408E-1,3.203148E0,2.0740767E0,5.9331665E0,0E0,1.2196746E1,2.0866623E0,0E0,0E0,2.508524E0,1.5478173E0,0E0,1.9869766E0,4.1491413E0,0E0,4.231326E0,0E0,1.0289838E1,0E0,0E0,0E0,0E0,0E0,0E0,0E0,0E0,0E0,0E0,0E0,0E0,0E0,0E0,0E0,0E0,0E0,0E0,0E0],"parents":[2147483647,0,0,1,1,2,2,3,3,4,4,5,5,6,6,7,7,8,8,9,9,12,12,13,13,16,16,17,17,19,19,20,20,21,21,22,22,23,23,24,24,25,25,27,27,28,28,31,31,32,32,34,34,35,35,37,37,39,39],"right_children":[2,4,6,8,10,12,14,16,18,20,-1,-1,22,24,-1,-1,26,28,-1,30,32,34,36,38,40,42,-1,44,46,-1,-1,48,50,-1,52,54,-1,56,-1,58,-1,-1,-1,-1,-1,-1,-1,-1,-1,-1,-1,-1,-1,-1,-1,-1,-1,-1,-1],"split_conditions":[1.386E3,1.87E2,2.05E2,3.01E2,5.61E1,1.38E1,5.28E1,6.23E1,3.125E2,2E2,2.3766375E-1,1.9035439E-1,5.79E1,2.25E2,2.5224337E-1,-9.581971E-2,6.68E1,3.024E2,-3.655913E-2,3.014E2,1E0,1.58E1,1.418E3,1.895E3,1.573E3,1.35E3,1.9625719E-1,3.108E2,1.66E2,-6.8497874E-2,6.0900535E-2,2.995E2,4.86E1,2.5609214E-2,1.98E2,6.14E1,2.1575797E-1,1.532E3,1.4610307E-1,4.37E1,2.30503E-1,-2.838239E-2,1.7992584E-1,1.5485714E-1,-1.4581302E-2,2.0237195E-1,4.032759E-2,2.5514635E-1,8.318338E-2,1.3113223E-1,-1.0084091E-2,-9.756201E-2,-3.186464E-2,-2.6779225E-2,1.7911457E-1,5.7502903E-2,-4.48423E-2,-7.095656E-2,2.2644079E-1],"split_indices":[3,5,5,1,4,4,4,4,2,5,0,0,4,5,0,0,4,1,0,1,0,4,3,3,3,3,0,2,5,0,0,1,4,0,5,4,0,3,0,4,0,0,0,0,0,0,0,0,0,0,0,0,0,0,0,0,0,0,0],"split_type":[0,0,0,0,0,0,0,0,0,0,0,0,0,0,0,0,0,0,0,0,0,0,0,0,0,0,0,0,0,0,0,0,0,0,0,0,0,0,0,0,0,0,0,0,0,0,0,0,0,0,0,0,0,0,0,0,0,0,0],"sum_hessian":[2.4575351E2,7.778629E1,1.6796721E2,5.5841293E1,2.1944998E1,1.4587231E2,2.2094904E1,2.1610477E1,3.4230816E1,1.1016531E1,1.0928468E1,5.7158985E0,1.401564E2,2.0921665E1,1.1732377E0,1.43794365E1,7.231041E0,3.2307682E1,1.9231342E0,2.9142427E0,8.102288E0,1.3623611E2,3.9202995E0,1.6308754E1,4.6129127E0,4.563093E0,2.667948E0,1.6253666E1,1.6054016E1,1.6926626E0,1.2215801E0,6.0369835E0,2.0653048E0,1.3343569E0,1.3490175E2,2.486245E0,1.4340547E0,1.4991609E1,1.3171445E0,2.9426322E0,1.6702803E0,3.5313623E0,1.0317307E0,9.287596E0,6.9660707E0,1.4616889E1,1.4371262E0,3.2008395E0,2.836144E0,1.0201424E0,1.0451624E0,1.2886617E2,6.0355926E0,1.4689344E0,1.0173106E0,9.242109E0,5.7494993E0,1.8568819E0,1.0857505E0],"tree_param":{"num_deleted":"0","num_feature":"6","num_nodes":"59","size_leaf_vector":"1"}},{"base_weights":[3.100894E-4,9.63079E-1,-4.8836806E-1,6.520588E-1,1.6555353E0,-7.124807E-1,7.998475E-1,-4.4134323E-2,1.2742944E0,9.5905435E-1,1.906147E0,1.441895E0,-8.491381E-1,6.191274E-1,2.2143324E-1,-7.689009E-1,1.1867156E0,1.8811446E-1,6.302574E-1,1.4703776E-1,1.393296E0,2.1133807E-1,8.295033E-1,1.6396102E-1,2.3810225E-2,-9.3990135E-1,1.4892883E0,3.2577524E-1,1.377003E0,-9.5919035E-2,3.5395476E-1,-4.8812306E-3,1.4304563E0,-5.386789E-1,1.5993178E0,-3.5707396E-2,7.679819E-2,4.8323657E-2,1.822043E-1,-3.9779466E-2,1.8658757E-1,-9.690839E-2,-2.9925007E-1,5.372685E-2,1.7234589E-1,1.5855494E-1,1.3002129E-1,2.186737E-2,1.6656535E0,1.0800978E-1,-5.8415342E-2,1.6385715E-1,9.20234E-3,-8.519981E-2,8.007848E-2,2.1205364E-1,-3.3332698E-2,2.9663224E-2,-7.75856E-2,4.9971867E-2,-4.254858E-2,6.892541E-2,2.3493521E-1],"categories":[],"categories_nodes":[],"categories_segments":[],"categories_sizes":[],"default_left":[0,0,0,0,0,0,0,0,0,0,0,0,0,0,0,0,0,0,0,0,0,0,0,0,0,0,0,0,0,0,0,0,0,0,0,0,0,0,0,0,0,0,0,0,0,0,0,0,0,0,0,0,0,0,0,0,0,0,0,0,0,0,0],"id":6,"left_children":[1,3,5,7,9,11,13,15,17,19,21,23,25,27,-1,29,31,-1,33,35,37,-1,39,-1,-1,41,43,45,47,-1,49,-1,51,53,55,-1,-1,-1,-1,-1,-1,-1,57,-1,-1,59,-1,-1,61,-1,-1,-1,-1,-1,-1,-1,-1,-1,-1,-1,-1,-1,-1],"loss_changes":[1.1270037E2,1.628981E1,4.6442894E1,2.4879488E1,2.4215546E0,4.122741E1,4.7685204E0,2.5900135E1,1.0653519E1,2.7764993E0,2.0157928E0,1.6268177E0,2.8651665E1,4.5947514E0,0E0,4.2360535E0,3.314434E0,0E0,1.9211895E1,1.5463758E0,1.223031E0,0E0,6.303961E0,0E0,0E0,2.0323029E0,2.2981834E-1,2.672155E0,1.6486969E0,0E0,2.9287167E0,0E0,2.3650208E0,4.0777264E0,9.882566E0,0E0,0E0,0E0,0E0,0E0,0E0,0E0,2.1779397E0,0E0,0E0,3.4436777E0,0E0,0E0,1.4970798E0,0E0,0E0,0E0,0E0,0E0,0E0,0E0,0E0,0E0,0E0,0E0,0E0,0E0,0E0],"parents":[2147483647,0,0,1,1,2,2,3,3,4,4,5,5,6,6,7,7,8,8,9,9,10,10,11,11,12,12,13,13,15,15,16,16,18,18,19,19,20,20,22,22,25,25,26,26,27,27,28,28,30,30,32,32,33,33,34,34,42,42,45,45,48,48],"right_children":[2,4,6,8,10,12,14,16,18,20,22,24,26,28,-1,30,32,-1,34,36,38,-1,40,-1,-1,42,44,46,48,-1,50,-1,52,54,56,-1,-1,-1,-1,-1,-1,-1,58,-1,-1,60,-1,-1,62,-1,-1,-1,-1,-1,-1,-1,-1,-1,-1,-1,-1,-1,-1],"split_conditions":[1.386E3,1.87E2,2.05E2,3.019E2,5.33E1,1.58E1,5.28E1,6.23E1,3.111E2,2.07E2,1E0,1.38E1,5.79E1,2.25E2,2.2143324E-1,3.016E2,1.246E3,1.8811446E-1,3.03E2,3.016E2,1.36E3,2.1133807E-1,6.01E1,1.6396102E-1,2.3810225E-2,1.98E2,5.92E1,1.895E3,2.992E2,-9.5919035E-2,3.105E2,-4.8812306E-3,1.2E2,6.01E1,3.125E2,-3.5707396E-2,7.679819E-2,4.8323657E-2,1.822043E-1,-3.9779466E-2,1.8658757E-1,-9.690839E-2,3.097E2,5.372685E-2,1.7234589E-1,1.532E3,1.3002129E-1,2.186737E-2,1.573E3,1.0800978E-1,-5.8415342E-2,1.6385715E-1,9.20234E-3,-8.519981E-2,8.007848E-2,2.1205364E-1,-3.3332698E-2,2.9663224E-2,-7.75856E-2,4.9971867E-2,-4.254858E-2,6.892541E-2,2.3493521E-1],"split_indices":[3,5,5,1,4,4,4,4,2,5,0,4,4,5,0,1,3,0,1,1,3,0,4,0,0,5,4,3,1,0,2,0,5,4,2,0,0,0,0,0,0,0,2,0,0,3,0,0,3,0,0,0,0,0,0,0,0,0,0,0,0,0,0],"split_type":[0,0,0,0,0,0,0,0,0,0,0,0,0,0,0,0,0,0,0,0,0,0,0,0,0,0,0,0,0,0,0,0,0,0,0,0,0,0,0,0,0,0,0,0,0,0,0,0,0,0,0,0,0,0,0,0,0,0,0,0,0,0,0],"sum_hessian":[2.375416E2,7.964947E1,1.5789212E2,5.6302555E1,2.334691E1,1.3487471E2,2.301742E1,2.7010605E1,2.9291952E1,7.4551015E0,1.5891809E1,7.475396E0,1.2739931E2,2.1684614E1,1.3328058E0,1.7236483E1,9.774121E0,1.4092391E1,1.519956E1,3.0640483E0,4.391053E0,1.2519171E1,3.3726387E0,6.1098557E0,1.3655409E0,1.2321493E2,4.1843796E0,1.666422E1,5.020394E0,1.4863359E1,2.3731234E0,1.7422663E0,8.031856E0,7.0905976E0,8.108963E0,1.9256582E0,1.13839E0,2.0874074E0,2.303646E0,1.826188E0,1.5464507E0,1.17356514E2,5.858412E0,1.4764051E0,2.7079744E0,1.5215798E1,1.4484226E0,1.3521014E0,3.6682923E0,1.252369E0,1.1207542E0,6.756958E0,1.2748971E0,6.041364E0,1.0492332E0,6.30999E0,1.7989728E0,2.7712445E0,3.087167E0,9.6962E0,5.5195975E0,2.3377893E0,1.3305031E0],"tree_param":{"num_deleted":"0","num_feature":"6","num_nodes":"63","size_leaf_vector":"1"}},{"base_weights":[5.193874E-3,8.7216526E-1,-4.642749E-1,6.5300906E-1,1.6545608E0,-6.944763E-1,7.202706E-1,-1.2543732E-1,1.0196345E0,3.4104403E-2,1.7223923E-1,1.2710842E0,-8.347411E-1,5.218461E-1,1.7324887E-1,-8.376016E-1,9.0287983E-1,1.7467659E0,8.035784E-1,1.523451E0,-3.1070372E-2,-9.306816E-1,1.3026388E0,1.7287412E-1,1.1124E0,-9.5471576E-2,2.9041324E-2,2.7360666E-1,1.7791335E-1,4.8993576E-2,2.0003633E-1,2.2294869E-1,1.1841673E0,1.7340279E-1,2.7270904E-2,-9.623314E-2,-2.836151E-1,6.48546E-1,1.720954E-1,-3.640835E-1,5.732762E-1,5.7342577E-1,2.1073945E-1,-7.305626E-2,7.6352835E-2,-2.3083672E-2,8.448271E-2,1.3968079E-1,-8.709344E-3,2.6904792E-2,-7.60115E-2,-3.1025765E-2,1.4819728E-1,4.9531233E-2,-6.9145255E-2,1.05799995E-1,-1.6284809E-2,-2.8572707E-2,1.318845E-1],"categories":[],"categories_nodes":[],"categories_segments":[],"categories_sizes":[],"default_left":[0,0,0,0,0,0,0,0,0,0,0,0,0,0,0,0,0,0,0,0,0,0,0,0,0,0,0,0,0,0,0,0,0,0,0,0,0,0,0,0,0,0,0,0,0,0,0,0,0,0,0,0,0,0,0,0,0,0,0],"id":7,"left_children":[1,3,5,7,9,11,13,15,17,-1,-1,19,21,23,-1,25,27,29,31,33,-1,35,37,39,41,-1,-1,43,-1,-1,-1,45,47,-1,-1,-1,49,51,-1,53,55,57,-1,-1,-1,-1,-1,-1,-1,-1,-1,-1,-1,-1,-1,-1,-1,-1,-1],"loss_changes":[9.395061E1,1.2822746E1,4.1334404E1,1.8676878E1,9.353142E-1,3.5769253E1,4.0884876E0,1.6647692E1,5.554901E0,0E0,0E0,3.9789524E0,2.5432106E1,4.385772E0,0E0,2.0394974E0,4.674515E0,1.9823246E0,7.6911335E0,1.5664139E0,0E0,2.0539398E0,3.8619518E-1,3.465345E0,3.1177912E0,0E0,0E0,3.8193612E0,0E0,0E0,0E0,4.565044E0,5.937237E0,0E0,0E0,0E0,1.9731632E0,3.4535685E0,0E0,2.3348877E0,3.4069545E0,4.6078258E0,0E0,0E0,0E0,0E0,0E0,0E0,0E0,0E0,0E0,0E0,0E0,0E0,0E0,0E0,0E0,0E0,0E0],"parents":[2147483647,0,0,1,1,2,2,3,3,4,4,5,5,6,6,7,7,8,8,11,11,12,12,13,13,15,15,16,16,17,17,18,18,19,19,21,21,22,22,23,23,24,24,27,27,31,31,32,32,36,36,37,37,39,39,40,40,41,41],"right_children":[2,4,6,8,10,12,14,16,18,-1,-1,20,22,24,-1,26,28,30,32,34,-1,36,38,40,42,-1,-1,44,-1,-1,-1,46,48,-1,-1,-1,50,52,-1,54,56,58,-1,-1,-1,-1,-1,-1,-1,-1,-1,-1,-1,-1,-1,-1,-1,-1,-1],"split_conditions":[1.386E3,2E2,2.05E2,3.006E2,4.59E1,1.58E1,5.2E1,6.07E1,3.104E2,3.4104403E-2,1.7223923E-1,2E0,5.79E1,2.21E2,1.7324887E-1,3.116E2,6.68E1,3.014E2,3.023E2,1.38E1,-3.1070372E-2,1.98E2,1.418E3,3.098E2,4.53E1,-9.5471576E-2,2.9041324E-2,1.288E3,1.7791335E-1,4.8993576E-2,2.0003633E-1,5.7E1,3.123E2,1.7340279E-1,2.7270904E-2,-9.623314E-2,3.097E2,6.14E1,1.720954E-1,3.082E2,3.9E1,1.573E3,2.1073945E-1,-7.305626E-2,7.6352835E-2,-2.3083672E-2,8.448271E-2,1.3968079E-1,-8.709344E-3,2.6904792E-2,-7.60115E-2,-3.1025765E-2,1.4819728E-1,4.9531233E-2,-6.9145255E-2,1.05799995E-1,-1.6284809E-2,-2.8572707E-2,1.318845E-1],"split_indices":[3,5,5,1,4,4,4,4,2,0,0,0,4,5,0,2,4,1,1,4,0,5,3,2,4,0,0,3,0,0,0,4,2,0,0,0,2,4,0,2,4,3,0,0,0,0,0,0,0,0,0,0,0,0,0,0,0,0,0],"split_type":[0,0,0,0,0,0,0,0,0,0,0,0,0,0,0,0,0,0,0,0,0,0,0,0,0,0,0,0,0,0,0,0,0,0,0,0,0,0,0,0,0,0,0,0,0,0,0,0,0,0,0,0,0,0,0,0,0,0,0],"sum_hessian":[2.2883295E2,8.008381E1,1.4874913E2,6.399332E1,1.6090492E1,1.2489172E2,2.3857403E1,2.0699808E1,4.329351E1,1.0861269E0,1.5004366E1,7.781793E0,1.1710993E2,2.1214321E1,2.6430824E0,1.2339507E1,8.360301E0,8.294341E0,3.499917E1,6.742879E0,1.038914E0,1.1261936E2,4.490571E0,1.4147165E1,7.067156E0,1.1318062E1,1.0214456E0,5.6296606E0,2.7306406E0,1.8848689E0,6.4094725E0,1.4485603E1,2.0513565E1,5.4405074E0,1.3023715E0,1.0690321E2,5.7161455E0,2.7464688E0,1.7441025E0,6.081842E0,8.065324E0,5.6065035E0,1.4606524E0,1.684939E0,3.9447215E0,8.738163E0,5.747441E0,1.7489397E1,3.0241678E0,2.848135E0,2.8680108E0,1.5690781E0,1.1773906E0,1.5361625E0,4.545679E0,4.59943E0,3.4658935E0,2.8910434E0,2.71546E0],"tree_param":{"num_deleted":"0","num_feature":"6","num_nodes":"59","size_leaf_vector":"1"}},{"base_weights":[8.5882265E-3,7.8375775E-1,-4.409444E-1,5.321379E-1,1.3091637E0,-6.761181E-1,6.4714247E-1,-5.1360276E-2,1.0171081E0,7.126815E-1,1.5505E0,1.1347587E0,-8.196438E-1,4.9789977E-1,1.8027477E-1,-7.434309E-1,9.2749345E-1,1.5879582E0,4.9692833E-1,2.508235E-1,1.2929505E-1,1.7357446E-1,6.484956E-1,1.3571076E0,-2.9633671E-2,-9.210257E-1,1.1805251E0,1.7083132E-1,9.2710435E-1,-9.4707E-2,2.7696136E-1,-7.962527E-3,1.1190641E0,1.0020893E0,1.8670483E-1,-4.414768E-1,1.3393918E0,-3.3648336E-1,1.4638448E-1,-4.223986E-2,1.5442418E-1,1.5412036E-1,2.5354093E-2,-9.553086E-2,-2.690195E-1,5.6314385E-1,1.6208369E-1,-6.566249E-2,7.759678E-1,1.6821139E-1,5.5437446E-1,9.194748E-2,-6.0393136E-2,2.6075533E-2,1.370457E-1,1.9300513E-2,1.4455734E-1,-7.6390825E-2,6.1929613E-2,1.7427827E-1,-3.1402458E-2,3.8730007E-2,-8.004808E-2,2.443511E-2,-7.443E-2,-3.2819744E-2,1.3262016E-1,6.084453E-2,-2.6047766E-2,1.2741067E-1,-1.8179635E-2,-7.394249E-3,1.5193664E-1],"categories":[],"categories_nodes":[],"categories_segments":[],"categories_sizes":[],"default_left":[0,0,0,0,0,0,0,0,0,0,0,0,0,0,0,0,0,0,0,0,0,0,0,0,0,0,0,0,0,0,0,0,0,0,0,0,0,0,0,0,0,0,0,0,0,0,0,0,0,0,0,0,0,0,0,0,0,0,0,0,0,0,0,0,0,0,0,0,0,0,0,0,0],"id":8,"left_children":[1,3,5,7,9,11,13,15,17,19,21,23,25,27,-1,29,31,33,35,37,-1,-1,39,41,-1,43,45,47,49,-1,51,-1,53,55,-1,57,59,61,-1,-1,-1,-1,-1,-1,63,65,-1,67,69,-1,71,-1,-1,-1,-1,-1,-1,-1,-1,-1,-1,-1,-1,-1,-1,-1,-1,-1,-1,-1,-1,-1,-1],"loss_changes":[7.7779335E1,1.0134029E1,3.659205E1,1.6204826E1,2.615364E0,3.1253036E1,3.5212126E0,1.8885693E1,8.481541E0,2.166832E0,1.8067055E0,3.2619E0,2.3125732E1,3.2208962E0,0E0,3.6472902E0,2.3213682E0,4.8844528E-1,1.4655979E1,5.063684E0,0E0,0E0,5.051862E0,1.2259712E0,0E0,2.0676804E0,6.316118E-1,2.1815362E0,1.9336376E0,0E0,2.5271394E0,0E0,1.7544985E0,2.1661267E0,0E0,3.6088295E0,6.9651337E0,2.0349712E0,0E0,0E0,0E0,0E0,0E0,0E0,1.7891157E0,3.0861034E0,0E0,1.685322E0,2.2647238E0,0E0,5.151E0,0E0,0E0,0E0,0E0,0E0,0E0,0E0,0E0,0E0,0E0,0E0,0E0,0E0,0E0,0E0,0E0,0E0,0E0,0E0,0E0,0E0,0E0],"parents":[2147483647,0,0,1,1,2,2,3,3,4,4,5,5,6,6,7,7,8,8,9,9,10,10,11,11,12,12,13,13,15,15,16,16,17,17,18,18,19,19,22,22,23,23,25,25,26,26,27,27,28,28,30,30,32,32,33,33,35,35,36,36,37,37,44,44,45,45,47,47,48,48,50,50],"right_children":[2,4,6,8,10,12,14,16,18,20,22,24,26,28,-1,30,32,34,36,38,-1,-1,40,42,-1,44,46,48,50,-1,52,-1,54,56,-1,58,60,62,-1,-1,-1,-1,-1,-1,64,66,-1,68,70,-1,72,-1,-1,-1,-1,-1,-1,-1,-1,-1,-1,-1,-1,-1,-1,-1,-1,-1,-1,-1,-1,-1,-1],"split_conditions":[1.386E3,1.87E2,2.05E2,3.019E2,5.33E1,1.58E1,5.28E1,6.23E1,3.11E2,3.016E2,1E0,2E0,5.79E1,2.18E2,1.8027477E-1,3.016E2,1.246E3,8.4E1,3.03E2,2.18E2,1.2929505E-1,1.7357446E-1,6.01E1,1.38E1,-2.9633671E-2,1.98E2,1.34E2,3.017E2,3.06E1,-9.4707E-2,1.345E3,-7.962527E-3,6.37E1,3.023E2,1.8670483E-1,5.92E1,3.125E2,2.986E2,1.4638448E-1,-4.223986E-2,1.5442418E-1,1.5412036E-1,2.5354093E-2,-9.553086E-2,3.097E2,6.07E1,1.6208369E-1,3.083E2,1E0,1.6821139E-1,4.53E1,9.194748E-2,-6.0393136E-2,2.6075533E-2,1.370457E-1,1.9300513E-2,1.4455734E-1,-7.6390825E-2,6.1929613E-2,1.7427827E-1,-3.1402458E-2,3.8730007E-2,-8.004808E-2,2.443511E-2,-7.443E-2,-3.2819744E-2,1.3262016E-1,6.084453E-2,-2.6047766E-2,1.2741067E-1,-1.8179635E-2,-7.394249E-3,1.5193664E-1],"split_indices":[3,5,5,1,4,4,4,4,2,1,0,0,4,5,0,1,3,5,1,5,0,0,4,4,0,5,5,1,4,0,3,0,4,1,0,4,2,1,0,0,0,0,0,0,2,4,0,2,0,0,4,0,0,0,0,0,0,0,0,0,0,0,0,0,0,0,0,0,0,0,0,0,0],"split_type":[0,0,0,0,0,0,0,0,0,0,0,0,0,0,0,0,0,0,0,0,0,0,0,0,0,0,0,0,0,0,0,0,0,0,0,0,0,0,0,0,0,0,0,0,0,0,0,0,0,0,0,0,0,0,0,0,0,0,0,0,0,0,0,0,0,0,0,0,0,0,0,0,0],"sum_hessian":[2.2121446E2,8.09249E1,1.4028957E2,5.608046E1,2.4844437E1,1.1566823E2,2.4621334E1,2.586035E1,3.0220112E1,8.295213E0,1.6549223E1,7.9871655E0,1.0768107E2,2.3072456E1,1.5488778E0,1.5290292E1,1.0570057E1,1.3429617E1,1.6790495E1,5.4163723E0,2.8788404E0,1.2962746E1,3.5864775E0,6.9578295E0,1.0293363E0,1.0299987E2,4.681194E0,1.388763E1,9.184826E0,1.2806387E1,2.4839053E0,1.7826624E0,8.787395E0,5.8144393E0,7.615177E0,8.16813E0,8.622366E0,4.1363087E0,1.2800636E0,1.8742223E0,1.7122552E0,5.623206E0,1.3346231E0,9.741267E1,5.587205E0,2.8974762E0,1.7837176E0,1.0626265E1,3.2613664E0,1.8746136E0,7.3102126E0,1.4109645E0,1.0729408E0,2.4522235E0,6.335171E0,2.566807E0,3.247632E0,6.478721E0,1.6894088E0,6.887857E0,1.7345088E0,1.6803888E0,2.4559197E0,2.9195526E0,2.6676526E0,1.5992526E0,1.2982236E0,1.9064145E0,8.71985E0,1.9282036E0,1.3331629E0,4.9866953E0,2.3235176E0],"tree_param":{"num_deleted":"0","num_feature":"6","num_nodes":"73","size_leaf_vector":"1"}},{"base_weights":[1.4334031E-2,7.2429234E-1,-4.1737676E-1,5.56395E-1,1.3724738E0,-6.577307E-1,5.9194845E-1,-9.8402716E-2,8.49046E-1,7.20503E-1,1.6951446E-1,1.0235558E0,-8.040716E-1,4.5562652E-1,1.6427772E-1,-7.77395E-1,7.598013E-1,1.3914155E0,6.3570875E-1,2.6544872E-1,1.3437085E-1,1.2232993E0,-2.8268645E-2,-9.108786E-1,1.0753129E0,2.3440991E-1,9.807327E-1,-8.898823E-1,1.8929735E-2,2.4625422E-1,1.4983776E-1,4.241367E-1,1.7478175E-1,2.080556E-1,1.1316062E0,-2.9753342E-1,9.502407E-2,1.3888375E-1,2.3578957E-2,-9.47963E-2,-2.55412E-1,-1.8192774E-2,1.3827312E-1,1.0470213E-1,1.2521084E-1,4.9629462E-1,1.6858618E-1,-9.371064E-2,-2.4752807E-2,-1.835743E-2,1.273878E-1,-3.222979E-2,9.162121E-2,-1.8988494E-3,1.1679148E-1,1.5978436E-1,1.6926115E-2,3.9348986E-2,-7.209574E-2,2.2218782E-2,-7.284369E-2,3.6815595E-2,-4.169521E-2,-7.165658E-2,1.3416092E-1],"categories":[],"categories_nodes":[],"categories_segments":[],"categories_sizes":[],"default_left":[0,0,0,0,0,0,0,0,0,0,0,0,0,0,0,0,0,0,0,0,0,0,0,0,0,0,0,0,0,0,0,0,0,0,0,0,0,0,0,0,0,0,0,0,0,0,0,0,0,0,0,0,0,0,0,0,0,0,0,0,0,0,0,0,0],"id":9,"left_children":[1,3,5,7,9,11,13,15,17,19,-1,21,23,25,-1,27,29,31,33,35,-1,37,-1,39,41,43,45,47,-1,49,-1,51,-1,53,55,57,-1,-1,-1,-1,59,-1,-1,61,-1,63,-1,-1,-1,-1,-1,-1,-1,-1,-1,-1,-1,-1,-1,-1,-1,-1,-1,-1,-1],"loss_changes":[6.573844E1,8.062023E0,3.275148E1,1.2749046E1,2.1452103E0,2.7448658E1,3.0023088E0,1.3009237E1,4.412895E0,1.6390297E0,0E0,2.721427E0,2.1074944E1,2.6231132E0,0E0,1.5160055E0,3.393322E0,3.4243069E0,7.123358E0,2.3312333E0,0E0,9.9419975E-1,0E0,2.0736542E0,2.5095086E0,2.3234615E0,1.542798E0,1.10095024E-1,0E0,3.3467994E0,0E0,1.9752877E0,0E0,4.3496327E0,6.8377514E0,1.3597617E0,0E0,0E0,0E0,0E0,1.6235834E0,0E0,0E0,2.5700905E0,0E0,6.6476927E0,0E0,0E0,0E0,0E0,0E0,0E0,0E0,0E0,0E0,0E0,0E0,0E0,0E0,0E0,0E0,0E0,0E0,0E0,0E0],"parents":[2147483647,0,0,1,1,2,2,3,3,4,4,5,5,6,6,7,7,8,8,9,9,11,11,12,12,13,13,15,15,16,16,17,17,18,18,19,19,21,21,23,23,24,24,25,25,26,26,27,27,29,29,31,31,33,33,34,34,35,35,40,40,43,43,45,45],"right_children":[2,4,6,8,10,12,14,16,18,20,-1,22,24,26,-1,28,30,32,34,36,-1,38,-1,40,42,44,46,48,-1,50,-1,52,-1,54,56,58,-1,-1,-1,-1,60,-1,-1,62,-1,64,-1,-1,-1,-1,-1,-1,-1,-1,-1,-1,-1,-1,-1,-1,-1,-1,-1,-1,-1],"split_conditions":[1.386E3,2.02E2,2.05E2,3.006E2,5.24E1,1.58E1,5.28E1,6.07E1,3.105E2,2.18E2,1.6951446E-1,2E0,5.79E1,2.25E2,1.6427772E-1,3.115E2,6.68E1,3.017E2,3.026E2,3.016E2,1.3437085E-1,1.38E1,-2.8268645E-2,1.98E2,1.397E3,2.157E3,4.42E1,1.98E2,1.8929735E-2,1.71E2,1.4983776E-1,5.53E1,1.7478175E-1,6.37E1,3.121E2,4.68E1,9.502407E-2,1.3888375E-1,2.3578957E-2,-9.47963E-2,3.097E2,-1.8192774E-2,1.3827312E-1,1.555E3,1.2521084E-1,1.573E3,1.6858618E-1,-9.371064E-2,-2.4752807E-2,-1.835743E-2,1.273878E-1,-3.222979E-2,9.162121E-2,-1.8988494E-3,1.1679148E-1,1.5978436E-1,1.6926115E-2,3.9348986E-2,-7.209574E-2,2.2218782E-2,-7.284369E-2,3.6815595E-2,-4.169521E-2,-7.165658E-2,1.3416092E-1],"split_indices":[3,5,5,1,4,4,4,4,2,5,0,0,4,5,0,2,4,1,1,1,0,4,0,5,3,3,4,5,0,5,0,4,0,4,2,4,0,0,0,0,2,0,0,3,0,3,0,0,0,0,0,0,0,0,0,0,0,0,0,0,0,0,0,0,0],"split_type":[0,0,0,0,0,0,0,0,0,0,0,0,0,0,0,0,0,0,0,0,0,0,0,0,0,0,0,0,0,0,0,0,0,0,0,0,0,0,0,0,0,0,0,0,0,0,0,0,0,0,0,0,0,0,0,0,0,0,0,0,0,0,0,0,0],"sum_hessian":[2.1249709E2,8.009738E1,1.323997E2,6.5094475E1,1.5002909E1,1.0721628E2,2.518342E1,2.031161E1,4.4782864E1,6.037269E0,8.965639E0,8.104997E0,9.911128E1,2.3560545E1,1.6228752E0,1.1392373E1,8.919236E0,1.1083365E1,3.3699497E1,4.3135376E0,1.7237318E0,7.085081E0,1.0199152E0,9.426922E1,4.842066E0,1.759467E1,5.965874E0,1.0276074E1,1.1162988E0,6.0476203E0,2.8716161E0,3.5738766E0,7.5094895E0,1.885706E1,1.4842437E1,2.6776755E0,1.6358619E0,5.719847E0,1.365234E0,8.879898E1,5.470235E0,1.0315542E0,3.8105116E0,1.6583899E1,1.0107712E0,4.5463047E0,1.4195693E0,9.144905E0,1.1311693E0,4.843197E0,1.2044237E0,1.5570277E0,2.0168488E0,1.6042582E1,2.8144782E0,9.553559E0,5.288878E0,1.0442181E0,1.6334574E0,2.9858203E0,2.4844148E0,1.1214456E1,5.369444E0,1.9297711E0,2.6165335E0],"tree_param":{"num_deleted":"0","num_feature":"6","num_nodes":"65","size_leaf_vector":"1"}},{"base_weights":[1.9106653E-2,6.701921E-1,-3.9553618E-1,4.5580617E-1,1.0993751E0,-6.3978773E-1,5.4070294E-1,-5.3165946E-2,8.6308485E-1,7.102044E-1,1.431138E0,9.3049043E-1,-7.883932E-1,4.1530967E-1,1.5111922E-1,-7.152989E-1,7.574805E-1,1.3843077E0,3.9094806E-1,-2.3285288E-1,9.8343855E-1,1.6293727E-1,5.6892127E-1,1.1125498E0,-2.697107E-2,-9.001876E-1,9.4604015E-1,9.324868E-1,2.1600871E-1,-9.335948E-2,2.2222933E-1,-1.2665748E-2,9.3210304E-1,8.554524E-1,1.6369675E-1,-4.3935764E-1,1.1254768E0,3.1774264E-2,-6.911689E-2,1.3304403E-3,1.0818546E0,-6.290604E-2,1.306458E-1,1.264552E-1,2.1934463E-2,-9.402424E-2,-2.4273929E-1,-1.7363982E-2,1.2060974E0,1.3659815E-1,1.3130437E0,4.7895157E-1,-2.7156037E-1,7.858237E-2,-5.8676954E-2,1.0877257E-1,-4.158191E-3,1.4431188E-2,1.2608838E-1,-7.500297E-2,5.267642E-2,1.4760362E-1,-3.073428E-2,1.6033765E-2,1.1772914E-1,2.143004E-2,-7.243141E-2,6.318557E-2,1.759857E-1,4.688095E-2,-2.1763695E-2,1.4809142E-1,3.792094E-2,8.451895E-2,-5.5910327E-2,-5.5279057E-2,4.243004E-2],"categories":[],"categories_nodes":[],"categories_segments":[],"categories_sizes":[],"default_left":[0,0,0,0,0,0,0,0,0,0,0,0,0,0,0,0,0,0,0,0,0,0,0,0,0,0,0,0,0,0,0,0,0,0,0,0,0,0,0,0,0,0,0,0,0,0,0,0,0,0,0,0,0,0,0,0,0,0,0,0,0,0,0,0,0,0,0,0,0,0,0,0,0,0,0,0,0],"id":10,"left_children":[1,3,5,7,9,11,13,15,17,19,21,23,25,27,-1,29,31,33,35,37,39,-1,41,43,-1,45,47,49,51,-1,53,-1,55,57,-1,59,61,-1,-1,-1,63,-1,-1,-1,-1,-1,65,-1,67,69,71,73,75,-1,-1,-1,-1,-1,-1,-1,-1,-1,-1,-1,-1,-1,-1,-1,-1,-1,-1,-1,-1,-1,-1,-1,-1],"loss_changes":[5.5777122E1,6.8941307E0,2.921676E1,1.1510808E1,2.349018E0,2.4205742E1,2.6172252E0,1.4243348E1,7.0336895E0,3.8313532E0,1.3096199E0,2.3004775E0,1.8774189E1,2.3746161E0,0E0,3.1882482E0,1.9648643E0,5.0193787E-1,1.1194671E1,1.2161671E0,1.0388155E0,0E0,4.340719E0,8.283577E-1,0E0,2.071968E0,1.9811473E0,1.8349581E0,2.6097178E0,0E0,2.0835829E0,0E0,1.5769672E0,1.7489648E0,0E0,3.0827951E0,5.2705946E0,0E0,0E0,0E0,6.909342E-1,0E0,0E0,0E0,0E0,0E0,1.5559337E0,0E0,4.9821186E-1,4.8654386E-1,1.2553167E-1,5.3871126E0,1.6855531E0,0E0,0E0,0E0,0E0,0E0,0E0,0E0,0E0,0E0,0E0,0E0,0E0,0E0,0E0,0E0,0E0,0E0,0E0,0E0,0E0,0E0,0E0,0E0,0E0],"parents":[2147483647,0,0,1,1,2,2,3,3,4,4,5,5,6,6,7,7,8,8,9,9,10,10,11,11,12,12,13,13,15,15,16,16,17,17,18,18,19,19,20,20,22,22,23,23,25,25,26,26,27,27,28,28,30,30,32,32,33,33,35,35,36,36,40,40,46,46,48,48,49,49,50,50,51,51,52,52],"right_children":[2,4,6,8,10,12,14,16,18,20,22,24,26,28,-1,30,32,34,36,38,40,-1,42,44,-1,46,48,50,52,-1,54,-1,56,58,-1,60,62,-1,-1,-1,64,-1,-1,-1,-1,-1,66,-1,68,70,72,74,76,-1,-1,-1,-1,-1,-1,-1,-1,-1,-1,-1,-1,-1,-1,-1,-1,-1,-1,-1,-1,-1,-1,-1,-1],"split_conditions":[1.386E3,1.87E2,2.05E2,3.019E2,5.61E1,1.58E1,5.28E1,6.23E1,3.11E2,2E2,1E0,2E0,5.79E1,3.11E1,1.5111922E-1,3.016E2,1.246E3,8.4E1,3.03E2,1.93E2,1.322E3,1.6293727E-1,6.01E1,1.38E1,-2.697107E-2,1.98E2,1.397E3,2.13E2,1E0,-9.335948E-2,1.345E3,-1.2665748E-2,1.2E2,3.023E2,1.6369675E-1,5.92E1,3.125E2,3.1774264E-2,-6.911689E-2,1.3304403E-3,3.083E2,-6.290604E-2,1.306458E-1,1.264552E-1,2.1934463E-2,-9.402424E-2,3.83E1,-1.7363982E-2,1.44E2,3.005E2,3.019E2,1.532E3,1.553E3,7.858237E-2,-5.8676954E-2,1.0877257E-1,-4.158191E-3,1.4431188E-2,1.2608838E-1,-7.500297E-2,5.267642E-2,1.4760362E-1,-3.073428E-2,1.6033765E-2,1.1772914E-1,2.143004E-2,-7.243141E-2,6.318557E-2,1.759857E-1,4.688095E-2,-2.1763695E-2,1.4809142E-1,3.792094E-2,8.451895E-2,-5.5910327E-2,-5.5279057E-2,4.243004E-2],"split_indices":[3,5,5,1,4,4,4,4,2,5,0,0,4,4,0,1,3,5,1,5,3,0,4,4,0,5,3,5,0,0,3,0,5,1,0,4,2,0,0,0,2,0,0,0,0,0,4,0,5,1,1,3,3,0,0,0,0,0,0,0,0,0,0,0,0,0,0,0,0,0,0,0,0,0,0,0,0],"split_type":[0,0,0,0,0,0,0,0,0,0,0,0,0,0,0,0,0,0,0,0,0,0,0,0,0,0,0,0,0,0,0,0,0,0,0,0,0,0,0,0,0,0,0,0,0,0,0,0,0,0,0,0,0,0,0,0,0,0,0,0,0,0,0,0,0,0,0,0,0,0,0,0,0,0,0,0,0],"sum_hessian":[2.0462456E2,7.9373474E1,1.2525108E2,5.430768E1,2.5065796E1,9.958691E1,2.5664175E1,2.4526552E1,2.9781126E1,1.2980206E1,1.2085589E1,8.154872E0,9.143204E1,2.3992176E1,1.6719997E0,1.3564631E1,1.0961921E1,1.3236489E1,1.6544638E1,2.9491425E0,1.0031063E1,9.102955E0,2.9826345E0,7.1441946E0,1.0106771E0,8.634743E1,5.084608E0,5.6505256E0,1.834165E1,1.1006137E1,2.5584943E0,1.8532646E0,9.108656E0,5.69719E0,7.5393E0,7.9546328E0,8.590004E0,1.479032E0,1.4701104E0,1.0284387E0,9.0026245E0,1.1925893E0,1.7900453E0,5.7499447E0,1.3942499E0,8.0983406E1,5.3640184E0,1.0209961E0,4.063612E0,2.267425E0,3.3831005E0,1.1927111E1,6.4145393E0,1.5248467E0,1.0336475E0,7.752468E0,1.3561883E0,2.5610197E0,3.13617E0,6.1883416E0,1.7662913E0,6.8772316E0,1.7127726E0,1.0963688E0,7.906256E0,3.0368705E0,2.3271482E0,3.045989E0,1.0176228E0,1.0031768E0,1.2642483E0,2.3710308E0,1.0120697E0,8.953874E0,2.9732366E0,4.7147055E0,1.6998336E0],"tree_param":{"num_deleted":"0","num_feature":"6","num_nodes":"77","size_leaf_vector":"1"}},{"base_weights":[2.20973E-2,6.206335E-1,-3.737694E-1,5.1807797E-1,1.4364538E0,-6.207264E-1,4.8823282E-1,2.794468E-1,9.60264E-1,3.4739565E-2,1.6703017E-1,8.509567E-1,-7.711722E-1,3.7259907E-1,1.4011961E-1,-5.380145E-1,6.337832E-1,1.124875E0,3.2153955E-1,1.01873E0,-2.5737027E-2,-8.8883877E-1,8.642977E-1,1.12181015E-1,6.982857E-1,-9.110473E-2,1.1554921E-1,9.243388E-1,-1.775268E-1,5.695031E-1,1.4542116E-1,-5.0018525E-1,8.59056E-1,1.16050914E-1,2.0410394E-2,-9.320952E-2,-2.3074463E-1,-1.6573476E-2,1.0951633E0,-2.3924868E-1,4.3405208E-1,8.1444114E-1,-1.6977042E-2,-4.522168E-2,1.3257246E-1,5.757133E-2,1.349188E-1,-7.638891E-2,4.3224588E-2,-1.7912257E-2,1.0299777E-1,-1.4825771E-2,-6.0326874E-2,2.7751788E-2,1.03575625E-1,2.1925976E-2,-7.087498E-2,5.7163686E-2,1.604069E-1,5.7712715E-2,-6.0320187E-2,9.284148E-2,-3.604007E-2,-9.199209E-3,9.3772754E-2],"categories":[],"categories_nodes":[],"categories_segments":[],"categories_sizes":[],"default_left":[0,0,0,0,0,0,0,0,0,0,0,0,0,0,0,0,0,0,0,0,0,0,0,0,0,0,0,0,0,0,0,0,0,0,0,0,0,0,0,0,0,0,0,0,0,0,0,0,0,0,0,0,0,0,0,0,0,0,0,0,0,0,0,0,0],"id":11,"left_children":[1,3,5,7,9,11,13,15,17,-1,-1,19,21,23,-1,25,27,29,31,33,-1,35,37,39,41,-1,43,45,47,49,-1,51,53,-1,-1,-1,55,-1,57,59,61,63,-1,-1,-1,-1,-1,-1,-1,-1,-1,-1,-1,-1,-1,-1,-1,-1,-1,-1,-1,-1,-1,-1,-1],"loss_changes":[4.7144344E1,5.8818493E0,2.5805065E1,7.3201714E0,1.5283642E0,2.137101E1,2.3533678E0,1.4279043E1,2.2454433E0,0E0,0E0,1.9641008E0,1.720385E1,2.087644E0,0E0,3.7845917E0,8.18549E0,2.7046623E0,3.292416E0,7.0454884E-1,0E0,2.0670242E0,1.665204E0,1.8438089E0,1.2630754E0,0E0,4.9771614E0,2.9580727E0,3.8383808E0,3.2297432E0,0E0,2.647096E-2,1.530037E-1,0E0,0E0,0E0,1.5048318E0,0E0,4.760189E-1,2.72455E0,3.6274405E0,1.2050552E0,0E0,0E0,0E0,0E0,0E0,0E0,0E0,0E0,0E0,0E0,0E0,0E0,0E0,0E0,0E0,0E0,0E0,0E0,0E0,0E0,0E0,0E0,0E0],"parents":[2147483647,0,0,1,1,2,2,3,3,4,4,5,5,6,6,7,7,8,8,11,11,12,12,13,13,15,15,16,16,17,17,18,18,19,19,21,21,22,22,23,23,24,24,26,26,27,27,28,28,29,29,31,31,32,32,36,36,38,38,39,39,40,40,41,41],"right_children":[2,4,6,8,10,12,14,16,18,-1,-1,20,22,24,-1,26,28,30,32,34,-1,36,38,40,42,-1,44,46,48,50,-1,52,54,-1,-1,-1,56,-1,58,60,62,64,-1,-1,-1,-1,-1,-1,-1,-1,-1,-1,-1,-1,-1,-1,-1,-1,-1,-1,-1,-1,-1,-1,-1],"split_conditions":[1.386E3,6.68E1,2.05E2,1.87E2,1.246E3,1.58E1,5.28E1,3.01E2,1E0,3.4739565E-2,1.6703017E-1,2E0,5.79E1,2.18E2,1.4011961E-1,6.23E1,3.115E2,5.39E1,3.002E2,1.38E1,-2.5737027E-2,1.98E2,1.397E3,3.101E2,3.028E2,-9.110473E-2,1.35E3,3.024E2,3.032E2,2.07E2,1.4542116E-1,3.087E2,3.109E2,1.16050914E-1,2.0410394E-2,-9.320952E-2,3.097E2,-1.6573476E-2,1.44E2,1.456E3,4.1E1,2.979E2,-1.6977042E-2,-4.522168E-2,1.3257246E-1,5.757133E-2,1.349188E-1,-7.638891E-2,4.3224588E-2,-1.7912257E-2,1.0299777E-1,-1.4825771E-2,-6.0326874E-2,2.7751788E-2,1.03575625E-1,2.1925976E-2,-7.087498E-2,5.7163686E-2,1.604069E-1,5.7712715E-2,-6.0320187E-2,9.284148E-2,-3.604007E-2,-9.199209E-3,9.3772754E-2],"split_indices":[3,4,5,5,3,4,4,1,0,0,0,0,4,5,0,4,2,4,1,4,0,5,3,2,1,0,3,1,1,5,0,2,2,0,0,0,2,0,5,3,4,1,0,0,0,0,0,0,0,0,0,0,0,0,0,0,0,0,0,0,0,0,0,0,0],"split_type":[0,0,0,0,0,0,0,0,0,0,0,0,0,0,0,0,0,0,0,0,0,0,0,0,0,0,0,0,0,0,0,0,0,0,0,0,0,0,0,0,0,0,0,0,0,0,0,0,0,0,0,0,0,0,0,0,0,0,0,0,0,0,0,0,0],"sum_hessian":[1.9699217E2,7.819554E1,1.1879663E2,7.0915855E1,7.2796845E0,9.255907E1,2.623756E1,4.7119305E1,2.3796549E1,1.7261862E0,5.5534987E0,8.152628E0,8.440644E1,2.4537783E1,1.6997762E0,1.40915165E1,3.302779E1,1.8315248E1,5.481299E0,7.150985E0,1.0016431E0,7.916715E1,5.239287E0,1.4382236E1,1.0155548E1,8.720291E0,5.3712254E0,2.4215973E1,8.811817E0,7.833905E0,1.0481344E1,2.1950626E0,3.2862365E0,5.7292624E0,1.4217224E0,7.3893776E1,5.2733784E0,1.0109483E0,4.2283387E0,6.998132E0,7.384103E0,9.011478E0,1.1440703E0,4.0822964E0,1.2889291E0,1.4594784E1,9.621189E0,4.3632946E0,4.448523E0,3.216165E0,4.61774E0,1.04968E0,1.1453826E0,1.3648701E0,1.9213663E0,2.9950635E0,2.2783146E0,3.1308281E0,1.0975103E0,1.977261E0,5.020871E0,4.447773E0,2.9363298E0,1.1093184E0,7.9021597E0],"tree_param":{"num_deleted":"0","num_feature":"6","num_nodes":"65","size_leaf_vector":"1"}},{"base_weights":[2.4125233E-2,5.7410014E-1,-3.5298792E-1,4.447022E-1,1.131118E0,-6.142657E-1,4.0139982E-1,7.153686E-2,7.064042E-1,4.7175917E-1,1.2422366E0,7.930367E-1,-7.717978E-1,2.8215843E-1,1.1574363E0,-6.8298686E-1,6.789272E-1,1.0927751E0,2.9270783E-1,-3.6845233E-2,1.1858264E-1,7.046888E-1,1.54199E-1,2.9572353E-1,9.608653E-1,-9.0035427E-1,8.1396884E-1,1.3306348E-1,1.0707788E0,1.5152155E-1,1.7467957E-2,-9.182491E-2,1.9507822E-1,9.242469E-1,-2.2012928E-1,6.5949386E-1,1.3031365E-1,-4.7588605E-1,9.674789E-1,-2.185517E-2,9.414485E-1,7.1229115E-2,-3.9667714E-2,1.1499969E0,1.42082E-4,-9.234708E-2,-3.1432527E-1,3.504605E-1,1.2670398E-1,-1.3410552E-1,6.054295E-1,3.751343E-2,1.4189522E-1,-6.707282E-2,1.0145166E-1,1.2289615E-1,1.7763153E-2,-4.837469E-2,2.780748E-2,1.1748856E-1,-2.3811331E-2,1.678496E-2,-6.893056E-2,1.4105453E-1,-1.0302036E-2,3.8370073E-2,1.265447E-1,1.4725254E-1,2.6089458E-2,4.7171146E-2,-7.065204E-2,-2.8077906E-2,1.2116567E-1,-3.6098726E-2,3.4729395E-2,1.8978493E-2,1.3449104E-1],"categories":[],"categories_nodes":[],"categories_segments":[],"categories_sizes":[],"default_left":[0,0,0,0,0,0,0,0,0,0,0,0,0,0,0,0,0,0,0,0,0,0,0,0,0,0,0,0,0,0,0,0,0,0,0,0,0,0,0,0,0,0,0,0,0,0,0,0,0,0,0,0,0,0,0,0,0,0,0,0,0,0,0,0,0,0,0,0,0,0,0,0,0,0,0,0,0],"id":12,"left_children":[1,3,5,7,9,11,13,15,17,19,21,23,25,27,29,31,33,35,37,-1,-1,39,-1,41,43,45,47,49,51,-1,-1,-1,53,55,57,59,-1,61,63,-1,65,-1,-1,67,-1,-1,69,71,-1,73,75,-1,-1,-1,-1,-1,-1,-1,-1,-1,-1,-1,-1,-1,-1,-1,-1,-1,-1,-1,-1,-1,-1,-1,-1,-1,-1],"loss_changes":[3.983659E1,5.1271667E0,2.2713179E1,6.300749E0,4.4537735E-1,1.9468666E1,2.3713365E0,1.3259838E1,5.772356E0,2.6223354E0,7.5590897E-1,4.7168207E-1,1.6430237E1,3.0523925E0,1.0554867E0,2.8544912E0,3.7258396E0,9.035492E-1,1.0714761E1,0E0,0E0,1.5031335E0,0E0,1.3582773E0,1.1463399E0,6.810608E-1,8.7884855E-1,3.1092293E0,4.797325E-1,0E0,0E0,0E0,3.2072706E0,2.6799307E0,6.9022745E-1,4.1408873E0,0E0,1.4777098E0,5.2954884E0,0E0,4.0214777E-1,0E0,0E0,1.1308751E0,0E0,0E0,1.6394551E0,2.784442E0,0E0,1.8886532E0,2.46473E0,0E0,0E0,0E0,0E0,0E0,0E0,0E0,0E0,0E0,0E0,0E0,0E0,0E0,0E0,0E0,0E0,0E0,0E0,0E0,0E0,0E0,0E0,0E0,0E0,0E0,0E0],"parents":[2147483647,0,0,1,1,2,2,3,3,4,4,5,5,6,6,7,7,8,8,9,9,10,10,11,11,12,12,13,13,14,14,15,15,16,16,17,17,18,18,21,21,23,23,24,24,25,25,26,26,27,27,28,28,32,32,33,33,34,34,35,35,37,37,38,38,40,40,43,43,46,46,47,47,49,49,50,50],"right_children":[2,4,6,8,10,12,14,16,18,20,22,24,26,28,30,32,34,36,38,-1,-1,40,-1,42,44,46,48,50,52,-1,-1,-1,54,56,58,60,-1,62,64,-1,66,-1,-1,68,-1,-1,70,72,-1,74,76,-1,-1,-1,-1,-1,-1,-1,-1,-1,-1,-1,-1,-1,-1,-1,-1,-1,-1,-1,-1,-1,-1,-1,-1,-1,-1],"split_conditions":[1.386E3,6.37E1,2.03E2,3.016E2,1.246E3,1.58E1,1.854E3,1.87E2,3.11E2,1.36E2,6.68E1,3.095E2,5.79E1,5.2E1,3.008E2,6.23E1,1E0,3.021E2,3.03E2,-3.6845233E-2,1.1858264E-1,1.288E3,1.54199E-1,2.983E2,1.25E2,1.98E2,6.14E1,2.21E2,2.11E2,1.5152155E-1,1.7467957E-2,-9.182491E-2,1.332E3,2.995E2,3.002E2,3.106E2,1.3031365E-1,3.112E2,3.123E2,-2.185517E-2,3.105E2,7.1229115E-2,-3.9667714E-2,3.117E2,1.42082E-4,-9.234708E-2,2.985E2,1.44E2,1.2670398E-1,3.109E2,4.53E1,3.751343E-2,1.4189522E-1,-6.707282E-2,1.0145166E-1,1.2289615E-1,1.7763153E-2,-4.837469E-2,2.780748E-2,1.1748856E-1,-2.3811331E-2,1.678496E-2,-6.893056E-2,1.4105453E-1,-1.0302036E-2,3.8370073E-2,1.265447E-1,1.4725254E-1,2.6089458E-2,4.7171146E-2,-7.065204E-2,-2.8077906E-2,1.2116567E-1,-3.6098726E-2,3.4729395E-2,1.8978493E-2,1.3449104E-1],"split_indices":[3,4,5,1,3,4,3,5,2,5,4,2,4,4,1,4,0,1,1,0,0,3,0,1,5,5,4,5,5,0,0,0,3,1,1,2,0,2,2,0,2,0,0,2,0,0,1,5,0,2,4,0,0,0,0,0,0,0,0,0,0,0,0,0,0,0,0,0,0,0,0,0,0,0,0,0,0],"split_type":[0,0,0,0,0,0,0,0,0,0,0,0,0,0,0,0,0,0,0,0,0,0,0,0,0,0,0,0,0,0,0,0,0,0,0,0,0,0,0,0,0,0,0,0,0,0,0,0,0,0,0,0,0,0,0,0,0,0,0,0,0,0,0,0,0,0,0,0,0,0,0,0,0,0,0,0,0],"sum_hessian":[1.9009648E2,7.711338E1,1.1298309E2,6.40359E1,1.3077484E1,8.40564E1,2.8926699E1,2.6921467E1,3.711443E1,2.642555E0,1.043493E1,8.055853E0,7.600054E1,2.6172071E1,2.7546277E0,1.1951006E1,1.4970461E1,1.8342237E1,1.877219E1,1.436407E0,1.206148E0,4.9353185E0,5.499611E0,2.7295759E0,5.326277E0,7.07011E1,5.299438E0,2.2993666E1,3.178406E0,1.6222395E0,1.1323884E0,9.389491E0,2.561515E0,1.1739234E1,3.2312272E0,7.346239E0,1.0995999E1,8.913765E0,9.858425E0,1.0230107E0,3.9123077E0,1.686315E0,1.0432609E0,4.2833166E0,1.0429604E0,6.74641E1,3.2370002E0,3.496209E0,1.8032291E0,1.5144228E1,7.8494377E0,1.7531259E0,1.4252801E0,1.333761E0,1.227754E0,7.87797E0,3.8612635E0,2.132084E0,1.0991433E0,4.4704623E0,2.8757768E0,2.2725651E0,6.641199E0,6.7479014E0,3.110524E0,2.240192E0,1.6721159E0,2.6616054E0,1.621711E0,1.0100043E0,2.226996E0,2.4063606E0,1.0898483E0,1.0463126E1,4.681102E0,5.8294754E0,2.0199625E0],"tree_param":{"num_deleted":"0","num_feature":"6","num_nodes":"77","size_leaf_vector":"1"}},{"base_weights":[2.9125966E-2,-3.1037295E-1,5.7729715E-1,-5.2374315E-1,2.910471E-1,3.619106E-1,1.0790716E0,7.3592687E-1,-6.6595304E-1,1.7460306E-1,1.0355227E0,1.372496E-1,1.0399094E0,1.359435E0,1.945705E-1,8.951726E-1,-2.6900677E-2,3.1314152E-1,-8.8422483E-1,-3.6219716E-2,5.821733E-1,1.3332792E-1,1.646423E-2,-3.824666E-1,4.1328186E-1,2.7006942E-1,1.1620501E0,3.958007E-2,1.4001751E-1,-4.8428878E-1,1.1908565E-1,1.0199938E-1,1.909653E-2,-6.499978E-1,7.0470536E-1,-9.102425E-1,-2.8177142E-1,3.2675093E-1,-5.2925557E-1,1.7136955E-1,1.216446E0,-7.880042E-1,3.842721E-1,1.1638016E0,1.1499996E-1,-1.3876825E-2,5.4208856E-2,6.480439E-1,1.4565317E-1,-7.88435E-2,2.036718E-2,-1.0801416E-2,-7.701863E-2,8.883279E-2,-5.3866666E-2,-9.3929864E-2,-3.6561236E-2,4.378636E-2,-6.811296E-2,7.4797E-2,-7.651316E-2,-8.248592E-2,3.4447704E-2,4.891097E-2,-6.25144E-2,2.682255E-2,1.5130982E-1,-9.054913E-2,-2.4443366E-2,-4.4233155E-2,9.171466E-2,1.8623618E-2,1.341409E-1,-1.8465757E-2,3.976616E-2,-2.086171E-2,8.811542E-2],"categories":[],"categories_nodes":[],"categories_segments":[],"categories_sizes":[],"default_left":[0,0,0,0,0,0,0,0,0,0,0,0,0,0,0,0,0,0,0,0,0,0,0,0,0,0,0,0,0,0,0,0,0,0,0,0,0,0,0,0,0,0,0,0,0,0,0,0,0,0,0,0,0,0,0,0,0,0,0,0,0,0,0,0,0,0,0,0,0,0,0,0,0,0,0,0,0],"id":13,"left_children":[1,3,5,7,9,11,13,15,17,19,21,23,25,27,29,31,-1,33,35,37,39,-1,-1,41,43,45,47,-1,-1,49,-1,-1,-1,51,53,55,57,59,61,63,65,67,69,71,73,-1,-1,75,-1,-1,-1,-1,-1,-1,-1,-1,-1,-1,-1,-1,-1,-1,-1,-1,-1,-1,-1,-1,-1,-1,-1,-1,-1,-1,-1,-1,-1],"loss_changes":[3.4391712E1,1.4804127E1,7.246052E0,1.565123E1,2.466899E0,7.6168995E0,4.8728695E0,1.6907744E0,1.6641315E1,2.3938303E0,7.9910946E-1,5.8126154E0,8.64069E-1,5.681038E-2,4.7383647E0,5.130062E-1,0E0,6.00086E0,7.2906494E-1,3.5984182E0,2.2597806E0,0E0,0E0,4.715722E0,5.7367973E0,4.1087565E-1,6.4678764E-1,0E0,0E0,1.0750661E0,0E0,0E0,0E0,2.2741747E-1,2.9737248E0,6.03302E-1,1.4625574E0,5.9272337E0,2.4790401E0,2.0553746E0,5.954423E-1,3.9240456E-1,2.864342E0,1.0260448E0,1.756907E0,0E0,0E0,1.3079731E0,0E0,0E0,0E0,0E0,0E0,0E0,0E0,0E0,0E0,0E0,0E0,0E0,0E0,0E0,0E0,0E0,0E0,0E0,0E0,0E0,0E0,0E0,0E0,0E0,0E0,0E0,0E0,0E0,0E0],"parents":[2147483647,0,0,1,1,2,2,3,3,4,4,5,5,6,6,7,7,8,8,9,9,10,10,11,11,12,12,13,13,14,14,15,15,17,17,18,18,19,19,20,20,23,23,24,24,25,25,26,26,29,29,33,33,34,34,35,35,36,36,37,37,38,38,39,39,40,40,41,41,42,42,43,43,44,44,47,47],"right_children":[2,4,6,8,10,12,14,16,18,20,22,24,26,28,30,32,-1,34,36,38,40,-1,-1,42,44,46,48,-1,-1,50,-1,-1,-1,52,54,56,58,60,62,64,66,68,70,72,74,-1,-1,76,-1,-1,-1,-1,-1,-1,-1,-1,-1,-1,-1,-1,-1,-1,-1,-1,-1,-1,-1,-1,-1,-1,-1,-1,-1,-1,-1,-1,-1],"split_conditions":[5.02E1,2.03E2,1.94E2,1.58E1,1.854E3,6.37E1,1E0,2E0,1.38E3,2.21E2,3.008E2,3.006E2,1.246E3,1.95E2,5.92E1,1.38E1,-2.6900677E-2,3.017E2,1.98E2,2.12E2,4.53E1,1.3332792E-1,1.646423E-2,6.07E1,3.105E2,1.21E2,6.68E1,3.958007E-2,1.4001751E-1,3.01E2,1.1908565E-1,1.0199938E-1,1.909653E-2,1.335E3,3.12E2,4.77E1,2.985E2,1.555E3,3.109E2,4.2E1,2.27E2,1.76E2,1.338E3,3.017E2,3.025E2,-1.3876825E-2,5.4208856E-2,1.288E3,1.4565317E-1,-7.88435E-2,2.036718E-2,-1.0801416E-2,-7.701863E-2,8.883279E-2,-5.3866666E-2,-9.3929864E-2,-3.6561236E-2,4.378636E-2,-6.811296E-2,7.4797E-2,-7.651316E-2,-8.248592E-2,3.4447704E-2,4.891097E-2,-6.25144E-2,2.682255E-2,1.5130982E-1,-9.054913E-2,-2.4443366E-2,-4.4233155E-2,9.171466E-2,1.8623618E-2,1.341409E-1,-1.8465757E-2,3.976616E-2,-2.086171E-2,8.811542E-2],"split_indices":[4,5,5,4,3,4,0,0,3,5,1,1,3,5,4,4,0,1,5,5,4,0,0,4,2,5,4,0,0,1,0,0,0,3,2,4,1,3,2,4,5,5,3,1,1,0,0,3,0,0,0,0,0,0,0,0,0,0,0,0,0,0,0,0,0,0,0,0,0,0,0,0,0,0,0,0,0],"split_type":[0,0,0,0,0,0,0,0,0,0,0,0,0,0,0,0,0,0,0,0,0,0,0,0,0,0,0,0,0,0,0,0,0,0,0,0,0,0,0,0,0,0,0,0,0,0,0,0,0,0,0,0,0,0,0,0,0,0,0,0,0,0,0,0,0,0,0,0,0,0,0,0,0,0,0,0,0],"sum_hessian":[1.8283604E2,1.1317634E2,6.9659706E1,8.363403E1,2.9542303E1,4.9942966E1,1.9716742E1,8.0605135E0,7.557352E1,2.6614101E1,2.9282022E0,3.8415936E1,1.1527034E1,1.4563536E1,5.153205E0,7.0522137E0,1.0082996E0,1.36973095E1,6.187621E1,1.8141321E1,8.47278E0,1.7864534E0,1.1417487E0,1.3192111E1,2.5223824E1,2.0181272E0,9.508906E0,1.0253755E0,1.353816E1,3.3704917E0,1.7827133E0,5.6094985E0,1.4427153E0,3.768307E0,9.929003E0,5.8824898E1,3.0513134E0,1.0643151E1,7.49817E0,5.913152E0,2.5596282E0,8.610289E0,4.581823E0,6.3484745E0,1.8875349E1,1.0020024E0,1.0161248E0,4.6292887E0,4.8796177E0,2.2359397E0,1.1345519E0,1.0285995E0,2.7397075E0,8.9001665E0,1.0288365E0,5.5157574E1,3.6673214E0,1.0545743E0,1.9967393E0,7.9075875E0,2.7355638E0,5.6444573E0,1.8537122E0,4.5028434E0,1.4103092E0,1.0637203E0,1.4959079E0,6.53253E0,2.0777588E0,1.8625377E0,2.719285E0,1.2910448E0,5.0574293E0,9.330521E0,9.544828E0,1.0127155E0,3.6165733E0],"tree_param":{"num_deleted":"0","num_feature":"6","num_nodes":"77","size_leaf_vector":"1"}},{"base_weights":[2.9561998E-2,-2.2719654E-1,6.8268204E-1,-4.5488626E-1,3.4922838E-1,3.9680496E-1,1.1843259E0,2.220853E-1,-6.8928754E-1,1.5216325E-1,6.5123636E-1,2.0067982E-1,1.112933E0,5.622366E-1,1.3111602E0,-7.862069E-1,6.163242E-1,6.7960954E-1,-8.7968093E-1,-3.122183E-2,5.569612E-1,2.8198516E-1,1.0894604E0,-2.7343976E-1,4.8347512E-1,-2.864562E-3,1.3591461E-1,-4.3678693E-2,9.895627E-2,1.4486471E-1,7.294238E-1,-1.8070087E-2,-8.860404E-2,7.8948104E-1,-6.694313E-2,2.3407443E-1,8.3671695E-1,-9.0608016E-2,-2.9960456E-1,9.1843896E-2,-1.4983848E-1,1.016374E0,6.381485E-2,-3.8757828E-1,7.651642E-1,1.5731138E-1,-2.9270424E-2,-8.3126985E-2,1.1347986E-1,5.985509E-1,-6.0473245E-2,-2.4916459E-2,1.1901279E-1,-4.1684855E-2,9.0358146E-2,6.268419E-2,-4.039822E-2,1.0176585E-1,-3.7441384E-3,3.2050636E-2,-6.707334E-2,-2.8711522E-2,6.506114E-2,1.24192886E-1,2.606541E-2,4.212581E-2,-5.5933483E-2,4.5263015E-2,-7.680726E-2,1.7238116E-2,1.2698026E-1,-5.5820346E-2,9.435142E-2,2.4605345E-2,1.0418228E-1],"categories":[],"categories_nodes":[],"categories_segments":[],"categories_sizes":[],"default_left":[0,0,0,0,0,0,0,0,0,0,0,0,0,0,0,0,0,0,0,0,0,0,0,0,0,0,0,0,0,0,0,0,0,0,0,0,0,0,0,0,0,0,0,0,0,0,0,0,0,0,0,0,0,0,0,0,0,0,0,0,0,0,0,0,0,0,0,0,0,0,0,0,0,0,0],"id":14,"left_children":[1,3,5,7,9,11,13,15,17,19,21,23,25,27,29,31,33,35,37,39,41,43,45,47,49,-1,-1,-1,-1,-1,51,-1,-1,53,-1,55,57,-1,59,-1,61,63,65,67,69,-1,-1,-1,71,73,-1,-1,-1,-1,-1,-1,-1,-1,-1,-1,-1,-1,-1,-1,-1,-1,-1,-1,-1,-1,-1,-1,-1,-1,-1],"loss_changes":[2.9955212E1,1.6998886E1,6.757309E0,1.4817253E1,2.0968442E0,4.496623E0,6.665249E-1,1.0233137E1,1.8551918E1,1.7717379E0,2.0009742E0,3.8329003E0,2.007822E0,2.4658647E0,6.5200806E-2,2.831688E-1,4.5785565E0,4.324031E-1,6.613121E-1,2.076402E0,1.6165035E0,3.2375503E0,4.5875416E0,2.4579206E0,2.5722127E0,0E0,0E0,0E0,0E0,0E0,2.4134774E0,0E0,0E0,2.6465235E0,0E0,1.1875752E0,1.0262303E0,0E0,1.1690099E0,0E0,1.962516E0,3.1977344E-1,1.2705345E0,1.7780194E0,1.4612219E0,0E0,0E0,0E0,4.622139E0,2.3162942E0,0E0,0E0,0E0,0E0,0E0,0E0,0E0,0E0,0E0,0E0,0E0,0E0,0E0,0E0,0E0,0E0,0E0,0E0,0E0,0E0,0E0,0E0,0E0,0E0,0E0],"parents":[2147483647,0,0,1,1,2,2,3,3,4,4,5,5,6,6,7,7,8,8,9,9,10,10,11,11,12,12,13,13,14,14,15,15,16,16,17,17,18,18,19,19,20,20,21,21,22,22,23,23,24,24,30,30,33,33,35,35,36,36,38,38,40,40,41,41,42,42,43,43,44,44,48,48,49,49],"right_children":[2,4,6,8,10,12,14,16,18,20,22,24,26,28,30,32,34,36,38,40,42,44,46,48,50,-1,-1,-1,-1,-1,52,-1,-1,54,-1,56,58,-1,60,-1,62,64,66,68,70,-1,-1,-1,72,74,-1,-1,-1,-1,-1,-1,-1,-1,-1,-1,-1,-1,-1,-1,-1,-1,-1,-1,-1,-1,-1,-1,-1,-1,-1],"split_conditions":[5.37E1,2.03E2,1.76E2,1.38E3,2.18E2,6.68E1,5.61E1,3.017E2,1.58E1,3.016E2,4.53E1,3.006E2,1.246E3,1.99E2,1E0,1.329E3,3.12E2,3.095E2,1.98E2,2.04E2,3.11E2,1.573E3,1E0,6.07E1,3.125E2,-2.864562E-3,1.3591461E-1,-4.3678693E-2,9.895627E-2,1.4486471E-1,5.92E1,-1.8070087E-2,-8.860404E-2,1.312E3,-6.694313E-2,2.983E2,1.25E2,-9.0608016E-2,2.985E2,9.1843896E-2,5.24E1,1.447E3,1.532E3,3.094E2,1E0,1.5731138E-1,-2.9270424E-2,-8.3126985E-2,1.372E3,1.356E3,-6.0473245E-2,-2.4916459E-2,1.1901279E-1,-4.1684855E-2,9.0358146E-2,6.268419E-2,-4.039822E-2,1.0176585E-1,-3.7441384E-3,3.2050636E-2,-6.707334E-2,-2.8711522E-2,6.506114E-2,1.24192886E-1,2.606541E-2,4.212581E-2,-5.5933483E-2,4.5263015E-2,-7.680726E-2,1.7238116E-2,1.2698026E-1,-5.5820346E-2,9.435142E-2,2.4605345E-2,1.0418228E-1],"split_indices":[4,5,5,3,5,4,4,1,4,1,4,1,3,5,0,3,2,2,5,5,2,3,0,4,2,0,0,0,0,0,4,0,0,3,0,1,5,0,1,0,4,3,3,2,0,0,0,0,3,3,0,0,0,0,0,0,0,0,0,0,0,0,0,0,0,0,0,0,0,0,0,0,0,0,0],"split_type":[0,0,0,0,0,0,0,0,0,0,0,0,0,0,0,0,0,0,0,0,0,0,0,0,0,0,0,0,0,0,0,0,0,0,0,0,0,0,0,0,0,0,0,0,0,0,0,0,0,0,0,0,0,0,0,0,0,0,0,0,0,0,0,0,0,0,0,0,0,0,0,0,0,0,0],"sum_hessian":[1.7670512E2,1.2730884E2,4.9396294E1,9.141175E1,3.5897087E1,3.260586E1,1.6790434E1,2.3524233E1,6.788751E1,2.2632713E1,1.3264376E1,2.6600925E1,6.0049343E0,3.7636325E0,1.3026801E1,6.3329787E0,1.7191256E1,7.9754977E0,5.9912014E1,1.6211369E1,6.4213443E0,8.090622E0,5.1737533E0,9.950883E0,1.6650042E1,1.2221293E0,4.782805E0,1.1209295E0,2.642703E0,9.331252E0,3.6955483E0,1.2940967E0,5.0388823E0,1.549101E1,1.7002453E0,2.7283034E0,5.247194E0,5.676658E1,3.1454391E0,1.0513337E0,1.5160035E1,2.7750874E0,3.6462572E0,3.4741669E0,4.616455E0,3.730283E0,1.4434704E0,3.6050205E0,6.345863E0,1.5464652E1,1.18539E0,1.3298851E0,2.3656633E0,1.1093222E0,1.4381687E1,1.6996372E0,1.0286664E0,4.211334E0,1.0358597E0,1.2287498E0,1.9166893E0,1.3488134E1,1.6719006E0,1.6417214E0,1.1333659E0,2.52302E0,1.1232371E0,1.0238078E0,2.450359E0,2.7397497E0,1.8767055E0,3.6885192E0,2.6573434E0,9.4806E0,5.9840517E0],"tree_param":{"num_deleted":"0","num_feature":"6","num_nodes":"75","size_leaf_vector":"1"}},{"base_weights":[3.0721515E-2,-2.1281849E-1,6.3246024E-1,-4.3936333E-1,3.2686657E-1,3.6460498E-1,1.1090469E0,1.9799267E-1,-6.718346E-1,1.4822151E-1,5.960794E-1,1.8170509E-1,1.0405123E0,5.2469575E-1,1.2288035E0,-8.602923E-2,5.306394E-1,6.2672836E-1,-8.6742866E-1,4.989191E-2,8.4706314E-2,2.6238158E-1,9.909195E-1,-2.5957647E-1,4.3485558E-1,-2.708365E-3,1.2757082E-1,-4.1834433E-2,9.282877E-2,1.3617332E-1,6.804256E-1,6.779829E-1,-6.521542E-2,7.7853346E-1,-2.8263975E-2,-8.9574E-2,-2.849333E-1,2.3733331E-1,-6.311439E-1,-3.667695E-1,6.902648E-1,1.4217436E-1,-2.7891317E-2,-8.143135E-2,1.0758099E-1,9.980442E-2,1.7765106E-1,-2.3743022E-2,1.1078298E-1,3.991414E-2,1.2593217E-1,1.2124596E-1,4.2394392E-2,2.9771706E-2,-6.5490894E-2,1.2417827E-1,-8.6605985E-4,-7.736721E-2,-5.679828E-3,4.2054925E-2,-7.4911535E-2,1.5838442E-2,1.1246394E-1,-5.294888E-2,8.611094E-2,-2.118259E-2,6.9140315E-2],"categories":[],"categories_nodes":[],"categories_segments":[],"categories_sizes":[],"default_left":[0,0,0,0,0,0,0,0,0,0,0,0,0,0,0,0,0,0,0,0,0,0,0,0,0,0,0,0,0,0,0,0,0,0,0,0,0,0,0,0,0,0,0,0,0,0,0,0,0,0,0,0,0,0,0,0,0,0,0,0,0,0,0,0,0,0,0],"id":15,"left_children":[1,3,5,7,9,11,13,15,17,19,21,23,25,27,29,-1,31,33,35,37,-1,39,41,43,45,-1,-1,-1,-1,-1,47,49,-1,51,-1,-1,53,55,57,59,61,-1,-1,-1,63,-1,65,-1,-1,-1,-1,-1,-1,-1,-1,-1,-1,-1,-1,-1,-1,-1,-1,-1,-1,-1,-1],"loss_changes":[2.5274752E1,1.5166208E1,5.937378E0,1.3019028E1,1.6863842E0,3.9267855E0,5.718403E-1,8.910971E0,1.6787285E1,1.5734801E0,1.6358161E0,3.1753757E0,1.7618093E0,2.177959E0,7.0858E-2,0E0,3.7344093E0,1.4559009E0,6.683006E-1,2.916742E0,0E0,2.7186065E0,3.805047E0,2.2506402E0,2.4003215E0,0E0,0E0,0E0,0E0,0E0,2.094403E0,2.2998662E0,0E0,7.073884E-1,0E0,0E0,1.0706468E0,4.390132E0,3.613814E-1,1.627599E0,1.1614232E0,0E0,0E0,0E0,3.9477062E0,0E0,2.8341808E0,0E0,0E0,0E0,0E0,0E0,0E0,0E0,0E0,0E0,0E0,0E0,0E0,0E0,0E0,0E0,0E0,0E0,0E0,0E0,0E0],"parents":[2147483647,0,0,1,1,2,2,3,3,4,4,5,5,6,6,7,7,8,8,9,9,10,10,11,11,12,12,13,13,14,14,16,16,17,17,18,18,19,19,21,21,22,22,23,23,24,24,30,30,31,31,33,33,36,36,37,37,38,38,39,39,40,40,44,44,46,46],"right_children":[2,4,6,8,10,12,14,16,18,20,22,24,26,28,30,-1,32,34,36,38,-1,40,42,44,46,-1,-1,-1,-1,-1,48,50,-1,52,-1,-1,54,56,58,60,62,-1,-1,-1,64,-1,66,-1,-1,-1,-1,-1,-1,-1,-1,-1,-1,-1,-1,-1,-1,-1,-1,-1,-1,-1,-1],"split_conditions":[5.37E1,2.03E2,1.76E2,1.38E3,2.18E2,6.68E1,5.61E1,3.016E2,1.58E1,1.881E3,4.53E1,3.006E2,1.246E3,1.99E2,1E0,-8.602923E-2,3.12E2,2E0,1.98E2,1.555E3,8.4706314E-2,1.573E3,1E0,6.07E1,3.106E2,-2.708365E-3,1.2757082E-1,-4.1834433E-2,9.282877E-2,1.3617332E-1,5.92E1,3.027E2,-6.521542E-2,2.986E2,-2.8263975E-2,-8.9574E-2,2.985E2,3.9E1,2.13E2,3.094E2,1E0,1.4217436E-1,-2.7891317E-2,-8.143135E-2,1.372E3,9.980442E-2,1.356E3,-2.3743022E-2,1.1078298E-1,3.991414E-2,1.2593217E-1,1.2124596E-1,4.2394392E-2,2.9771706E-2,-6.5490894E-2,1.2417827E-1,-8.6605985E-4,-7.736721E-2,-5.679828E-3,4.2054925E-2,-7.4911535E-2,1.5838442E-2,1.1246394E-1,-5.294888E-2,8.611094E-2,-2.118259E-2,6.9140315E-2],"split_indices":[4,5,5,3,5,4,4,1,4,3,4,1,3,5,0,0,2,0,5,3,0,3,0,4,2,0,0,0,0,0,4,1,0,1,0,0,1,4,5,2,0,0,0,0,3,0,3,0,0,0,0,0,0,0,0,0,0,0,0,0,0,0,0,0,0,0,0],"split_type":[0,0,0,0,0,0,0,0,0,0,0,0,0,0,0,0,0,0,0,0,0,0,0,0,0,0,0,0,0,0,0,0,0,0,0,0,0,0,0,0,0,0,0,0,0,0,0,0,0,0,0,0,0,0,0,0,0,0,0,0,0,0,0,0,0,0,0],"sum_hessian":[1.7054958E2,1.21871284E2,4.867829E1,8.5969536E1,3.5901745E1,3.229348E1,1.6384815E1,2.3015976E1,6.2953564E1,2.2513046E1,1.3388698E1,2.6414555E1,5.878924E0,3.7020476E0,1.2682767E1,5.125014E0,1.7890963E1,7.9524517E0,5.500111E1,2.067534E1,1.8377049E0,8.158279E0,5.230418E0,9.619993E0,1.6794561E1,1.2210785E0,4.657845E0,1.098566E0,2.6034818E0,9.0144205E0,3.668346E0,1.6288641E1,1.6023211E0,6.938114E0,1.0143377E0,5.1938934E1,3.0621777E0,1.6723928E1,3.9514132E0,3.3602552E0,4.798024E0,3.8160815E0,1.4143369E0,3.3462574E0,6.273736E0,4.362296E0,1.2432265E1,1.3066919E0,2.361654E0,1.2148265E1,4.1403766E0,2.0320618E0,4.906052E0,1.2651237E0,1.7970539E0,2.4936724E0,1.4230256E1,2.8877475E0,1.0636656E0,1.0657554E0,2.2944999E0,2.7703855E0,2.027639E0,3.560682E0,2.713054E0,7.405683E0,5.026582E0],"tree_param":{"num_deleted":"0","num_feature":"6","num_nodes":"67","size_leaf_vector":"1"}},{"base_weights":[3.2265507E-2,-3.7816375E-1,3.4596327E-1,5.898381E-1,-5.61621E-1,1.7208682E-1,7.6237893E-1,7.1985245E-1,-3.2887343E-2,-8.7455124E-1,2.6633836E-2,-8.694613E-3,7.643842E-1,4.9886367E-1,1.265662E-1,1.1909095E-1,4.1369238E-1,3.657544E-2,-9.3256605E-1,2.1994811E-1,-6.7040914E-1,-6.064688E-1,2.7001777E-1,9.653597E-1,1.05754465E-1,-1.3463451E-2,6.5520394E-1,-2.3596127E-1,1.1379286E-1,-5.975024E-1,-9.798459E-2,-4.2649027E-2,7.4961025E-1,-6.4327926E-3,-8.0371045E-2,-7.788292E-1,5.6218766E-2,4.5869723E-1,-4.472889E-1,4.7265083E-1,1.2422101E0,1.1571658E-1,-5.945374E-1,2.0407261E-1,-4.9825754E-2,2.5223556E-1,1.0481505E0,-7.770383E-2,1.0470439E-2,-8.455213E-2,4.107277E-2,-3.6507986E-2,4.206712E-2,1.3782655E-1,1.4149663E-2,-8.7371714E-2,5.515228E-3,5.481133E-2,-6.238547E-2,1.0670077E-1,2.334172E-2,5.9158135E-2,-7.563903E-2,-2.364512E-2,1.4029418E-1,2.93866E-2,1.3598631E-1,-6.997394E-2,-1.6279243E-2,-2.6501706E-2,6.204493E-2,-3.903208E-2,6.73947E-2,5.5915006E-2,1.3523532E-1],"categories":[],"categories_nodes":[],"categories_segments":[],"categories_sizes":[],"default_left":[0,0,0,0,0,0,0,0,0,0,0,0,0,0,0,0,0,0,0,0,0,0,0,0,0,0,0,0,0,0,0,0,0,0,0,0,0,0,0,0,0,0,0,0,0,0,0,0,0,0,0,0,0,0,0,0,0,0,0,0,0,0,0,0,0,0,0,0,0,0,0,0,0,0,0],"id":16,"left_children":[1,3,5,7,9,11,13,15,-1,17,19,21,23,25,-1,-1,27,-1,29,31,33,35,37,39,41,43,45,47,-1,49,-1,51,53,-1,-1,55,57,59,61,63,65,-1,67,69,-1,71,73,-1,-1,-1,-1,-1,-1,-1,-1,-1,-1,-1,-1,-1,-1,-1,-1,-1,-1,-1,-1,-1,-1,-1,-1,-1,-1,-1,-1],"loss_changes":[2.1492165E1,1.3180099E1,6.7154083E0,1.6719222E0,1.1314373E1,7.2876163E0,3.023962E0,1.0705695E0,0E0,3.2242012E0,3.1482058E0,9.008198E0,2.0041933E0,1.5900044E0,0E0,0E0,4.08043E0,0E0,2.5382996E-2,2.56158E0,3.5889244E-1,2.0070944E0,5.1988425E0,1.0591583E0,4.254087E0,6.917756E-1,2.1338072E0,1.0212513E0,0E0,2.1804368E0,0E0,2.1113362E0,2.1301014E0,0E0,0E0,1.1329765E0,1.8407968E0,3.8219323E0,3.0775392E0,4.2607427E0,3.9401436E-1,0E0,4.813242E-2,1.0573776E0,0E0,2.6460567E0,3.3734703E-1,0E0,0E0,0E0,0E0,0E0,0E0,0E0,0E0,0E0,0E0,0E0,0E0,0E0,0E0,0E0,0E0,0E0,0E0,0E0,0E0,0E0,0E0,0E0,0E0,0E0,0E0,0E0,0E0],"parents":[2147483647,0,0,1,1,2,2,3,3,4,4,5,5,6,6,7,7,9,9,10,10,11,11,12,12,13,13,16,16,18,18,19,19,20,20,21,21,22,22,23,23,24,24,25,25,26,26,27,27,29,29,31,31,32,32,35,35,36,36,37,37,38,38,39,39,40,40,42,42,43,43,45,45,46,46],"right_children":[2,4,6,8,10,12,14,16,-1,18,20,22,24,26,-1,-1,28,-1,30,32,34,36,38,40,42,44,46,48,-1,50,-1,52,54,-1,-1,56,58,60,62,64,66,-1,68,70,-1,72,74,-1,-1,-1,-1,-1,-1,-1,-1,-1,-1,-1,-1,-1,-1,-1,-1,-1,-1,-1,-1,-1,-1,-1,-1,-1,-1,-1,-1],"split_conditions":[4.51E1,2.01E1,5.92E1,2E0,1.98E2,2.07E2,1.6E2,2.987E2,-3.2887343E-2,1.372E3,4.2E1,3.006E2,1E0,1.28E3,1.265662E-1,1.1909095E-1,1E0,3.657544E-2,2.91E1,3.73E1,2.983E2,2.01E2,1.38E3,5.02E1,4.81E1,1.265E3,6.37E1,3.102E2,1.1379286E-1,1.63E2,-9.798459E-2,3.107E2,3.9E1,-6.4327926E-3,-8.0371045E-2,5.79E1,1.386E3,3.105E2,3.011E2,2.24E2,1.326E3,1.1571658E-1,1.402E3,1.246E3,-4.9825754E-2,1.341E3,3.105E2,-7.770383E-2,1.0470439E-2,-8.455213E-2,4.107277E-2,-3.6507986E-2,4.206712E-2,1.3782655E-1,1.4149663E-2,-8.7371714E-2,5.515228E-3,5.481133E-2,-6.238547E-2,1.0670077E-1,2.334172E-2,5.9158135E-2,-7.563903E-2,-2.364512E-2,1.4029418E-1,2.93866E-2,1.3598631E-1,-6.997394E-2,-1.6279243E-2,-2.6501706E-2,6.204493E-2,-3.903208E-2,6.73947E-2,5.5915006E-2,1.3523532E-1],"split_indices":[4,4,4,0,5,5,5,1,0,3,4,1,0,3,0,0,0,0,4,4,1,5,3,4,4,3,4,2,0,5,0,2,4,0,0,4,3,2,1,5,3,0,3,3,0,3,2,0,0,0,0,0,0,0,0,0,0,0,0,0,0,0,0,0,0,0,0,0,0,0,0,0,0,0,0],"split_type":[0,0,0,0,0,0,0,0,0,0,0,0,0,0,0,0,0,0,0,0,0,0,0,0,0,0,0,0,0,0,0,0,0,0,0,0,0,0,0,0,0,0,0,0,0,0,0,0,0,0,0,0,0,0,0,0,0,0,0,0,0,0,0,0,0,0,0,0,0,0,0,0,0,0,0],"sum_hessian":[1.6491232E2,7.135234E1,9.355998E1,1.1015349E1,6.0336994E1,6.699792E1,2.6562057E1,9.839356E0,1.1759931E0,3.9067703E1,2.1269289E1,5.208563E1,1.4912293E1,1.8740757E1,7.821301E0,2.7375474E0,7.1018085E0,1.508691E0,3.7559013E1,1.7187151E1,4.0821395E0,1.6188671E1,3.5896957E1,1.1068976E1,3.843317E0,4.5954275E0,1.4145329E1,4.0990634E0,3.0027452E0,6.3308706E0,3.1228142E1,1.2105123E1,5.082028E0,1.0032476E0,3.078892E0,1.2708119E1,3.4805515E0,2.870655E1,7.190407E0,4.956021E0,6.112955E0,1.2756554E0,2.5676615E0,3.571764E0,1.0236633E0,7.7942257E0,6.3511043E0,1.0887955E0,3.0102682E0,5.2104983E0,1.1203723E0,7.262846E0,4.8422766E0,1.8760973E0,3.2059305E0,1.1367153E1,1.3409665E0,2.132303E0,1.3482484E0,6.7482595E0,2.195829E1,1.4392623E0,5.7511444E0,3.2355764E0,1.7204446E0,1.0607216E0,5.0522337E0,1.5654812E0,1.0021803E0,1.8505038E0,1.7212602E0,3.117923E0,4.6763024E0,3.5241606E0,2.8269434E0],"tree_param":{"num_deleted":"0","num_feature":"6","num_nodes":"75","size_leaf_vector":"1"}},{"base_weights":[3.3173412E-2,-1.869076E-1,5.5272037E-1,-4.0628383E-1,2.7985337E-1,3.0939555E-1,1.0004797E0,1.6450235E-1,-6.366171E-1,9.346578E-2,2.1450831E-1,1.4160466E-1,9.437154E-1,6.108635E-1,1.1913039E-1,-8.410374E-2,4.5352396E-1,5.2847904E-1,-8.415041E-1,5.388513E-1,5.6561723E-2,-2.6440954E-1,3.6862776E-1,-1.1150353E-3,1.1580584E-1,-1.0640444E-1,1.1487217E-1,8.618267E-1,-1.2032394E-2,1.0849912E-1,7.01046E-1,-8.7360513E-1,-2.667375E-1,-3.671048E-2,7.449264E-1,-1.3792038E-1,5.306765E-1,-7.939508E-2,6.444808E-2,4.6863347E-1,-5.8588963E-2,-7.3826075E-2,4.2236075E-2,1.1068759E-1,2.8221104E-2,-7.9204716E-2,7.6490454E-2,-4.3226164E-2,8.0262594E-2,8.762644E-2,-7.90091E-3,-5.774541E-2,-9.2481785E-2,2.8479794E-2,-6.378392E-2,4.3844607E-2,1.4486583E-1,1.37914885E-2,-5.463311E-2,2.0369707E-2,1.0386033E-1,-5.130102E-2,7.289466E-2,1.7658984E-2,8.28878E-2],"categories":[],"categories_nodes":[],"categories_segments":[],"categories_sizes":[],"default_left":[0,0,0,0,0,0,0,0,0,0,0,0,0,0,0,0,0,0,0,0,0,0,0,0,0,0,0,0,0,0,0,0,0,0,0,0,0,0,0,0,0,0,0,0,0,0,0,0,0,0,0,0,0,0,0,0,0,0,0,0,0,0,0,0,0],"id":17,"left_children":[1,3,5,7,9,11,13,15,17,-1,19,21,23,25,-1,-1,27,29,31,33,35,37,39,-1,-1,41,-1,43,45,47,49,51,53,-1,55,57,59,-1,61,63,-1,-1,-1,-1,-1,-1,-1,-1,-1,-1,-1,-1,-1,-1,-1,-1,-1,-1,-1,-1,-1,-1,-1,-1,-1],"loss_changes":[1.8512897E1,1.1770853E1,4.937585E0,1.0340094E1,1.3822849E0,3.3415432E0,4.9970627E-1,7.117601E0,1.3734882E1,0E0,1.7590641E0,2.5859628E0,1.3747125E0,3.0079021E0,0E0,0E0,3.5561383E0,5.7190156E-1,6.476898E-1,2.387379E0,2.342354E0,1.8386381E0,1.9673357E0,0E0,0E0,1.6885182E0,0E0,1.10108E0,6.4853563E0,1.7683669E0,9.1032195E-1,1.449585E-1,9.930843E-1,0E0,1.4255905E0,2.1306953E0,1.0115833E0,0E0,3.1585882E0,1.6008172E0,0E0,0E0,0E0,0E0,0E0,0E0,0E0,0E0,0E0,0E0,0E0,0E0,0E0,0E0,0E0,0E0,0E0,0E0,0E0,0E0,0E0,0E0,0E0,0E0,0E0],"parents":[2147483647,0,0,1,1,2,2,3,3,4,4,5,5,6,6,7,7,8,8,10,10,11,11,12,12,13,13,16,16,17,17,18,18,19,19,20,20,21,21,22,22,25,25,27,27,28,28,29,29,30,30,31,31,32,32,34,34,35,35,36,36,38,38,39,39],"right_children":[2,4,6,8,10,12,14,16,18,-1,20,22,24,26,-1,-1,28,30,32,34,36,38,40,-1,-1,42,-1,44,46,48,50,52,54,-1,56,58,60,-1,62,64,-1,-1,-1,-1,-1,-1,-1,-1,-1,-1,-1,-1,-1,-1,-1,-1,-1,-1,-1,-1,-1,-1,-1,-1,-1],"split_conditions":[5.37E1,2.03E2,1.76E2,1.38E3,2.01E1,6.68E1,1.332E3,3.016E2,1.58E1,9.346578E-2,1.407E3,3.006E2,1.246E3,5.92E1,1.1913039E-1,-8.410374E-2,3.11E2,3.095E2,1.98E2,2.07E2,2.25E2,6.07E1,3.125E2,-1.1150353E-3,1.1580584E-1,1.95E2,1.1487217E-1,1E0,3.03E2,1.12E2,1.25E2,1.44E3,2.985E2,-3.671048E-2,1.394E3,4.14E1,4.42E1,-7.939508E-2,1.372E3,1.356E3,-5.8588963E-2,-7.3826075E-2,4.2236075E-2,1.1068759E-1,2.8221104E-2,-7.9204716E-2,7.6490454E-2,-4.3226164E-2,8.0262594E-2,8.762644E-2,-7.90091E-3,-5.774541E-2,-9.2481785E-2,2.8479794E-2,-6.378392E-2,4.3844607E-2,1.4486583E-1,1.37914885E-2,-5.463311E-2,2.0369707E-2,1.0386033E-1,-5.130102E-2,7.289466E-2,1.7658984E-2,8.28878E-2],"split_indices":[4,5,5,3,4,4,3,1,4,0,3,1,3,4,0,0,2,2,5,5,5,4,2,0,0,5,0,0,1,5,5,3,1,0,3,4,4,0,3,3,0,0,0,0,0,0,0,0,0,0,0,0,0,0,0,0,0,0,0,0,0,0,0,0,0],"split_type":[0,0,0,0,0,0,0,0,0,0,0,0,0,0,0,0,0,0,0,0,0,0,0,0,0,0,0,0,0,0,0,0,0,0,0,0,0,0,0,0,0,0,0,0,0,0,0,0,0,0,0,0,0,0,0,0,0,0,0,0,0,0,0,0,0],"sum_hessian":[1.6000403E2,1.1284355E2,4.716048E1,7.685262E1,3.599093E1,3.1651285E1,1.5509197E1,2.2178402E1,5.467422E1,2.0586233E0,3.3932304E1,2.599761E1,5.6536746E0,6.479938E0,9.029259E0,4.525102E0,1.7653301E1,7.9405684E0,4.6733654E1,1.0322817E1,2.3609488E1,9.2643385E0,1.6733273E1,1.2102361E0,4.4434385E0,3.1205957E0,3.359342E0,8.951484E0,8.701817E0,2.7868605E0,5.153708E0,4.376919E1,2.9644604E0,1.768157E0,8.55466E0,1.7244772E1,6.364715E0,3.0074077E0,6.256931E0,1.5607134E1,1.1261384E0,1.241203E0,1.8793927E0,5.652188E0,3.2992964E0,4.332602E0,4.3692145E0,1.7785423E0,1.0083181E0,4.1076894E0,1.0460186E0,8.262826E0,3.5506367E1,1.2859012E0,1.6785592E0,7.08996E0,1.4646995E0,1.0688328E1,6.5564437E0,4.724403E0,1.640312E0,3.4696937E0,2.7872374E0,9.442482E0,6.1646523E0],"tree_param":{"num_deleted":"0","num_feature":"6","num_nodes":"65","size_leaf_vector":"1"}},{"base_weights":[3.349512E-2,-3.3900082E-1,3.0523667E-1,-5.416395E-1,3.983602E-1,1.8606499E-1,7.745618E-1,-8.279552E-1,1.1499653E-2,1.6469772E-1,8.985779E-1,1.3609191E-3,6.450626E-1,4.4835302E-1,1.04879044E-1,2.9803753E-2,-8.8962257E-1,1.931336E-1,-6.172175E-1,5.006942E-1,-7.230484E-2,1.23545386E-1,3.592616E-3,-4.5935798E-1,3.1695938E-1,4.775791E-1,1.14206456E-1,-1.752608E-1,7.830536E-1,-9.692585E-2,-5.3961986E-1,3.2718864E-1,-6.6075556E-2,-8.08842E-3,-7.5532116E-2,6.3284135E-1,-2.6671825E-2,-7.575414E-1,1.2702468E-1,7.3442465E-1,-5.960461E-2,-7.575871E-2,6.524707E-1,2.6778096E-2,-6.732079E-2,1.1472682E0,-6.329012E-3,3.7252415E-2,-7.3963664E-2,-3.3371616E-3,6.626522E-2,7.856485E-2,5.4396125E-3,-1.2110415E-2,-8.686247E-2,-5.460611E-2,5.8156736E-2,8.332072E-2,-1.787529E-2,-5.3250033E-2,4.6571746E-2,2.8522119E-2,-4.0638383E-2,2.721487E-2,9.503749E-2,1.371888E-1,4.684866E-2],"categories":[],"categories_nodes":[],"categories_segments":[],"categories_sizes":[],"default_left":[0,0,0,0,0,0,0,0,0,0,0,0,0,0,0,0,0,0,0,0,0,0,0,0,0,0,0,0,0,0,0,0,0,0,0,0,0,0,0,0,0,0,0,0,0,0,0,0,0,0,0,0,0,0,0,0,0,0,0,0,0,0,0,0,0,0,0],"id":18,"left_children":[1,3,5,7,9,11,13,15,17,19,21,23,25,27,-1,-1,29,31,33,35,-1,-1,-1,37,39,41,-1,43,45,-1,47,49,-1,-1,-1,51,-1,53,55,57,59,61,63,-1,-1,65,-1,-1,-1,-1,-1,-1,-1,-1,-1,-1,-1,-1,-1,-1,-1,-1,-1,-1,-1,-1,-1],"loss_changes":[1.58976345E1,1.0120588E1,4.931244E0,8.311878E0,1.5896258E0,6.2460184E0,1.1453199E0,2.6646442E0,2.273678E0,3.7497296E0,1.2659454E0,7.930968E0,1.2143431E0,2.2234054E0,0E0,0E0,3.971405E-1,1.9789205E0,2.697816E-1,1.0642493E0,0E0,0E0,0E0,3.9736128E0,5.1321254E0,1.745991E0,0E0,1.1306478E0,2.1338663E0,0E0,1.8035331E0,1.7128886E0,0E0,0E0,0E0,6.4930224E-1,0E0,9.44232E-1,2.8666184E0,1.5404072E0,4.7053576E0,7.2533494E-1,1.2623911E0,0E0,0E0,7.80592E-2,0E0,0E0,0E0,0E0,0E0,0E0,0E0,0E0,0E0,0E0,0E0,0E0,0E0,0E0,0E0,0E0,0E0,0E0,0E0,0E0,0E0],"parents":[2147483647,0,0,1,1,2,2,3,3,4,4,5,5,6,6,7,7,8,8,9,9,10,10,11,11,12,12,13,13,16,16,17,17,18,18,19,19,23,23,24,24,25,25,27,27,28,28,30,30,31,31,35,35,37,37,38,38,39,39,40,40,41,41,42,42,45,45],"right_children":[2,4,6,8,10,12,14,16,18,20,22,24,26,28,-1,-1,30,32,34,36,-1,-1,-1,38,40,42,-1,44,46,-1,48,50,-1,-1,-1,52,-1,54,56,58,60,62,64,-1,-1,66,-1,-1,-1,-1,-1,-1,-1,-1,-1,-1,-1,-1,-1,-1,-1,-1,-1,-1,-1,-1,-1],"split_conditions":[4.51E1,1.854E3,2.07E2,2.03E2,1.99E2,6.07E1,5.13E1,1.372E3,4.2E1,1.58E1,3.008E2,3.016E2,1.6E2,3.097E2,1.04879044E-1,2.9803753E-2,1.63E2,1.739E3,2.991E2,2E0,-7.230484E-2,1.23545386E-1,3.592616E-3,5.57E1,3.11E2,1.28E3,1.14206456E-1,2.993E2,4.9E1,-9.692585E-2,2.91E1,3.105E2,-6.6075556E-2,-8.08842E-3,-7.5532116E-2,1.38E1,-2.6671825E-2,4.65E1,1.76E2,1.38E3,3.03E2,3.1E2,6.37E1,2.6778096E-2,-6.732079E-2,4.71E1,-6.329012E-3,3.7252415E-2,-7.3963664E-2,-3.3371616E-3,6.626522E-2,7.856485E-2,5.4396125E-3,-1.2110415E-2,-8.686247E-2,-5.460611E-2,5.8156736E-2,8.332072E-2,-1.787529E-2,-5.3250033E-2,4.6571746E-2,2.8522119E-2,-4.0638383E-2,2.721487E-2,9.503749E-2,1.371888E-1,4.684866E-2],"split_indices":[4,3,5,5,5,4,4,3,4,4,1,1,5,2,0,0,5,3,1,0,0,0,0,4,2,3,0,1,4,0,4,2,0,0,0,4,0,4,5,3,1,2,4,0,0,4,0,0,0,0,0,0,0,0,0,0,0,0,0,0,0,0,0,0,0,0,0],"split_type":[0,0,0,0,0,0,0,0,0,0,0,0,0,0,0,0,0,0,0,0,0,0,0,0,0,0,0,0,0,0,0,0,0,0,0,0,0,0,0,0,0,0,0,0,0,0,0,0,0,0,0,0,0,0,0,0,0,0,0,0,0,0,0,0,0,0,0],"sum_hessian":[1.5503386E2,6.5289406E1,8.974445E1,5.142298E1,1.3866428E1,7.268471E1,1.705975E1,3.3556595E1,1.7866383E1,1.0357479E1,3.5089498E0,5.2543697E1,2.0141008E1,8.9948635E0,8.064886E0,1.5433517E0,3.2013245E1,1.4399296E1,3.4670873E0,7.829966E0,2.5275128E0,2.212704E0,1.2962458E0,2.1175554E1,3.1368143E1,1.6531137E1,3.6098704E0,3.307918E0,5.6869454E0,2.4638071E1,7.375173E0,1.297857E1,1.4207258E0,1.0346484E0,2.4324389E0,6.8293247E0,1.0006415E0,1.3843871E1,7.3316836E0,1.4425478E1,1.6942665E1,4.1062484E0,1.24248905E1,1.9950653E0,1.3128527E0,3.7273595E0,1.959586E0,1.1712794E0,6.2038937E0,6.689324E0,6.289246E0,5.1188717E0,1.7104528E0,2.3678412E0,1.1476029E1,2.8742132E0,4.4574704E0,1.309636E1,1.3291183E0,8.909055E0,8.033609E0,2.0286617E0,2.0775864E0,6.298016E0,6.126874E0,2.033378E0,1.6939818E0],"tree_param":{"num_deleted":"0","num_feature":"6","num_nodes":"67","size_leaf_vector":"1"}},{"base_weights":[3.2077566E-2,-3.2172337E-1,2.8462943E-1,4.695615E-1,-4.936754E-1,1.2863308E-1,5.991358E-1,5.8220017E-1,-3.1080276E-2,-8.399634E-1,1.2480278E-2,-1.9312653E-1,3.918216E-1,3.9078072E-1,1.029251E0,1.0420674E-1,2.935272E-1,3.1639468E-2,-9.0805507E-1,1.7053215E-1,-6.293398E-1,-7.370633E-1,2.3488286E-1,7.7673966E-1,2.7694862E-2,1.7660382E-1,8.6178714E-1,3.473795E-2,1.1002314E-1,-3.0147398E-1,9.680644E-2,-5.1186E-1,-9.6867055E-2,1.1503833E-1,3.301165E-2,-6.4992704E-3,-7.668932E-2,-8.6441463E-1,-2.014242E-1,5.4519904E-1,-5.324278E-1,9.41032E-1,3.7115008E-1,-4.747411E-1,5.23947E-1,-1.383579E-1,6.166423E-1,-1.11904905E-4,1.0624712E-1,-7.752291E-2,2.7491061E-3,-8.049711E-2,4.415999E-2,-3.1137541E-2,4.6611052E-2,-9.231919E-2,-1.9868642E-2,4.732952E-2,-6.331029E-2,-3.9371565E-2,7.659081E-2,4.235634E-2,-8.616827E-2,2.2310315E-2,9.945168E-2,7.600856E-2,-5.4212976E-3,-7.463049E-2,3.3432063E-2,1.0046929E-1,-5.6219023E-2,-5.8979243E-2,2.5037592E-2,7.673038E-4,1.027218E-1],"categories":[],"categories_nodes":[],"categories_segments":[],"categories_sizes":[],"default_left":[0,0,0,0,0,0,0,0,0,0,0,0,0,0,0,0,0,0,0,0,0,0,0,0,0,0,0,0,0,0,0,0,0,0,0,0,0,0,0,0,0,0,0,0,0,0,0,0,0,0,0,0,0,0,0,0,0,0,0,0,0,0,0,0,0,0,0,0,0,0,0,0,0,0,0],"id":19,"left_children":[1,3,5,7,9,11,13,15,-1,17,19,21,23,25,27,-1,29,-1,31,33,35,37,39,41,43,45,47,-1,-1,49,-1,51,-1,-1,53,-1,-1,55,57,59,61,63,65,67,69,71,73,-1,-1,-1,-1,-1,-1,-1,-1,-1,-1,-1,-1,-1,-1,-1,-1,-1,-1,-1,-1,-1,-1,-1,-1,-1,-1,-1,-1],"loss_changes":[1.3634373E1,8.885111E0,4.2878313E0,1.2239308E0,9.25313E0,5.2196274E0,2.2167397E0,1.116823E0,0E0,2.7538128E0,2.3802774E0,6.6918945E0,4.7078676E0,1.9964406E0,4.9755096E-2,0E0,3.4930801E0,0E0,2.2084236E-1,2.4907365E0,3.104036E-1,6.834774E-1,4.202023E0,7.413025E-1,4.8307066E0,2.2888675E0,1.1094918E0,0E0,0E0,8.006284E-1,0E0,2.0547328E0,0E0,0E0,2.753225E0,0E0,0E0,2.021308E-1,1.3827667E0,2.8279996E0,2.0133007E0,2.0037365E-1,1.0949723E0,2.3710694E0,5.640519E0,1.9171656E0,1.6962774E0,0E0,0E0,0E0,0E0,0E0,0E0,0E0,0E0,0E0,0E0,0E0,0E0,0E0,0E0,0E0,0E0,0E0,0E0,0E0,0E0,0E0,0E0,0E0,0E0,0E0,0E0,0E0,0E0],"parents":[2147483647,0,0,1,1,2,2,3,3,4,4,5,5,6,6,7,7,9,9,10,10,11,11,12,12,13,13,14,14,16,16,18,18,19,19,20,20,21,21,22,22,23,23,24,24,25,25,26,26,29,29,31,31,34,34,37,37,38,38,39,39,40,40,41,41,42,42,43,43,44,44,45,45,46,46],"right_children":[2,4,6,8,10,12,14,16,-1,18,20,22,24,26,28,-1,30,-1,32,34,36,38,40,42,44,46,48,-1,-1,50,-1,52,-1,-1,54,-1,-1,56,58,60,62,64,66,68,70,72,74,-1,-1,-1,-1,-1,-1,-1,-1,-1,-1,-1,-1,-1,-1,-1,-1,-1,-1,-1,-1,-1,-1,-1,-1,-1,-1,-1,-1],"split_conditions":[4.51E1,2.01E1,5.85E1,2E0,1.98E2,3.016E2,1.68E2,2.987E2,-3.1080276E-2,1.372E3,4.2E1,1.9E2,3.11E2,6.68E1,5.92E1,1.0420674E-1,1E0,3.1639468E-2,2.91E1,1.456E3,2.986E2,1.437E3,1E0,5.3E1,3.03E2,1.356E3,1.246E3,3.473795E-2,1.1002314E-1,3.102E2,9.680644E-2,1.63E2,-9.6867055E-2,1.1503833E-1,3.106E2,-6.4992704E-3,-7.668932E-2,3.113E2,1.456E3,4.87E1,4.83E1,3.017E2,3.106E2,1.99E2,3.123E2,3.008E2,6.14E1,-1.11904905E-4,1.0624712E-1,-7.752291E-2,2.7491061E-3,-8.049711E-2,4.415999E-2,-3.1137541E-2,4.6611052E-2,-9.231919E-2,-1.9868642E-2,4.732952E-2,-6.331029E-2,-3.9371565E-2,7.659081E-2,4.235634E-2,-8.616827E-2,2.2310315E-2,9.945168E-2,7.600856E-2,-5.4212976E-3,-7.463049E-2,3.3432063E-2,1.0046929E-1,-5.6219023E-2,-5.8979243E-2,2.5037592E-2,7.673038E-4,1.027218E-1],"split_indices":[4,4,4,0,5,1,5,1,0,3,4,5,2,4,4,0,0,0,4,3,1,3,0,4,1,3,3,0,0,2,0,5,0,0,2,0,0,2,3,4,4,1,2,5,2,1,4,0,0,0,0,0,0,0,0,0,0,0,0,0,0,0,0,0,0,0,0,0,0,0,0,0,0,0,0],"split_type":[0,0,0,0,0,0,0,0,0,0,0,0,0,0,0,0,0,0,0,0,0,0,0,0,0,0,0,0,0,0,0,0,0,0,0,0,0,0,0,0,0,0,0,0,0,0,0,0,0,0,0,0,0,0,0,0,0,0,0,0,0,0,0,0,0,0,0,0,0,0,0,0,0,0,0],"sum_hessian":[1.50565E2,6.259772E1,8.7967285E1,1.0865652E1,5.1732067E1,5.9743355E1,2.822393E1,9.717023E0,1.1486286E0,3.0325375E1,2.1406694E1,2.7000387E1,3.2742966E1,2.0299202E1,7.92473E0,2.740865E0,6.976158E0,1.483608E0,2.8841766E1,1.776601E1,3.640683E0,1.1572005E1,1.5428382E1,1.5366205E1,1.737676E1,1.4899172E1,5.400029E0,1.3028599E0,6.62187E0,4.000463E0,2.9756951E0,5.0802937E0,2.3761473E1,1.2800826E0,1.648593E1,1.0020425E0,2.6386402E0,8.853284E0,2.7187214E0,1.1191698E1,4.2366843E0,9.996685E0,5.3695197E0,8.656121E0,8.720639E0,9.083295E0,5.815877E0,1.2065403E0,4.1934886E0,1.0835015E0,2.9169617E0,4.004862E0,1.0754316E0,9.340054E0,7.145875E0,7.779675E0,1.073609E0,1.0231377E0,1.6955838E0,1.9809041E0,9.2107935E0,1.0119777E0,3.2247064E0,1.0516515E0,8.945034E0,2.393806E0,2.975714E0,6.538892E0,2.1172292E0,6.0969796E0,2.6236591E0,3.9634025E0,5.1198926E0,2.752313E0,3.0635643E0],"tree_param":{"num_deleted":"0","num_feature":"6","num_nodes":"75","size_leaf_vector":"1"}},{"base_weights":[3.1405285E-2,-1.5826905E-1,4.5637542E-1,-3.6631548E-1,2.1614473E-1,2.4675904E-1,8.5502714E-1,1.2769662E-1,-5.859382E-1,7.123602E-2,4.3889064E-1,1.0143817E-1,8.1454915E-1,9.9608976E-1,4.20859E-1,-7.19635E-1,4.0454638E-1,4.1622722E-1,-7.988509E-1,-9.4277905E-3,6.157626E-1,5.478635E-1,-3.6433384E-2,-1.5593635E-1,4.111689E-1,-1.0579126E-4,1.0104487E-1,1.3826999E-2,1.11250915E-1,-3.448214E-2,7.620831E-2,-7.970499E-2,-2.1059632E-2,9.593892E-1,7.014563E-2,5.5229634E-1,-3.8377743E-3,-4.1360605E-1,-8.776163E-1,1.6108903E-1,-6.27116E-1,1.5656417E-2,7.8213036E-2,9.423753E-2,3.567154E-1,6.78583E-2,-7.731003E-2,9.528593E-2,-1.8780643E-2,-2.8570348E-2,2.705479E-2,1.06378056E-1,2.5824144E-2,-8.774395E-2,3.9728235E-2,1.0689291E-2,6.8178035E-2,-8.131166E-2,1.4916944E-2,-4.628403E-2,-9.657365E-2,9.140087E-2,-5.62487E-3,-7.7056624E-2,-4.9715415E-3,8.182457E-2,7.7867373E-3,-5.009494E-2,5.329708E-2,-6.587637E-2,3.609949E-2],"categories":[],"categories_nodes":[],"categories_segments":[],"categories_sizes":[],"default_left":[0,0,0,0,0,0,0,0,0,0,0,0,0,0,0,0,0,0,0,0,0,0,0,0,0,0,0,0,0,0,0,0,0,0,0,0,0,0,0,0,0,0,0,0,0,0,0,0,0,0,0,0,0,0,0,0,0,0,0,0,0,0,0,0,0,0,0,0,0,0,0],"id":20,"left_children":[1,3,5,7,9,11,13,15,17,19,21,23,25,27,29,31,33,35,37,39,41,43,-1,45,47,-1,-1,-1,-1,49,-1,-1,-1,51,53,55,-1,57,59,61,63,-1,-1,-1,65,67,-1,-1,69,-1,-1,-1,-1,-1,-1,-1,-1,-1,-1,-1,-1,-1,-1,-1,-1,-1,-1,-1,-1,-1,-1],"loss_changes":[1.1917077E1,8.051251E0,3.5998917E0,7.2528057E0,1.1689684E0,2.4995143E0,5.1845264E-1,5.259976E0,1.0142836E1,1.0477693E0,1.4654808E0,2.1414719E0,9.97283E-1,9.2713547E-1,8.786726E-1,5.188656E-2,3.0136623E0,5.6021345E-1,7.980747E-1,2.3809566E0,1.1252344E-1,6.542752E-1,0E0,2.1183672E0,2.8363638E0,0E0,0E0,0E0,0E0,3.30696E-1,0E0,0E0,0E0,1.7656946E-1,3.8948116E0,3.176508E-1,0E0,2.00688E0,6.8157196E-1,2.9574804E0,3.6649454E-1,0E0,0E0,0E0,1.2819878E0,3.4142907E0,0E0,0E0,2.1159432E0,0E0,0E0,0E0,0E0,0E0,0E0,0E0,0E0,0E0,0E0,0E0,0E0,0E0,0E0,0E0,0E0,0E0,0E0,0E0,0E0,0E0,0E0],"parents":[2147483647,0,0,1,1,2,2,3,3,4,4,5,5,6,6,7,7,8,8,9,9,10,10,11,11,12,12,13,13,14,14,15,15,16,16,17,17,18,18,19,19,20,20,21,21,23,23,24,24,29,29,33,33,34,34,35,35,37,37,38,38,39,39,40,40,44,44,45,45,48,48],"right_children":[2,4,6,8,10,12,14,16,18,20,22,24,26,28,30,32,34,36,38,40,42,44,-1,46,48,-1,-1,-1,-1,50,-1,-1,-1,52,54,56,-1,58,60,62,64,-1,-1,-1,66,68,-1,-1,70,-1,-1,-1,-1,-1,-1,-1,-1,-1,-1,-1,-1,-1,-1,-1,-1,-1,-1,-1,-1,-1,-1],"split_conditions":[5.37E1,2.03E2,1.76E2,1.38E3,2.18E2,6.68E1,1E0,3.017E2,1.58E1,1.881E3,3.028E2,1.356E3,1.246E3,5.53E1,5.92E1,3.014E2,3.108E2,1.38E1,1.44E3,1.555E3,3.101E2,1.4E3,-3.6433384E-2,3.116E2,1.378E3,-1.0579126E-4,1.0104487E-1,1.3826999E-2,1.11250915E-1,1.368E3,7.620831E-2,-7.970499E-2,-2.1059632E-2,1.69E2,3.023E2,3.095E2,-3.8377743E-3,1.416E3,2.91E1,3.9E1,3.113E2,1.5656417E-2,7.8213036E-2,9.423753E-2,3.06E1,3.014E2,-7.731003E-2,9.528593E-2,5.85E1,-2.8570348E-2,2.705479E-2,1.06378056E-1,2.5824144E-2,-8.774395E-2,3.9728235E-2,1.0689291E-2,6.8178035E-2,-8.131166E-2,1.4916944E-2,-4.628403E-2,-9.657365E-2,9.140087E-2,-5.62487E-3,-7.7056624E-2,-4.9715415E-3,8.182457E-2,7.7867373E-3,-5.009494E-2,5.329708E-2,-6.587637E-2,3.609949E-2],"split_indices":[4,5,5,3,5,4,0,1,4,3,1,3,3,4,4,1,2,4,3,3,2,3,0,2,3,0,0,0,0,3,0,0,0,5,1,2,0,3,4,4,2,0,0,0,4,1,0,0,4,0,0,0,0,0,0,0,0,0,0,0,0,0,0,0,0,0,0,0,0,0,0],"split_type":[0,0,0,0,0,0,0,0,0,0,0,0,0,0,0,0,0,0,0,0,0,0,0,0,0,0,0,0,0,0,0,0,0,0,0,0,0,0,0,0,0,0,0,0,0,0,0,0,0,0,0,0,0,0,0,0,0,0,0,0,0,0,0,0,0,0,0,0,0,0,0],"sum_hessian":[1.4594759E2,1.0134325E2,4.460434E1,6.51588E1,3.6184452E1,3.029422E1,1.4310121E1,2.0181578E1,4.497722E1,2.2722197E1,1.3462255E1,2.5059195E1,5.235026E0,9.824017E0,4.486104E0,4.576201E0,1.5605377E1,7.7138305E0,3.7263386E1,2.0646414E1,2.0757842E0,1.2133969E1,1.328286E0,1.3957544E1,1.1101649E1,1.2064978E0,4.0285277E0,1.4353719E0,8.388644E0,2.30679E0,2.1793141E0,3.4810123E0,1.0951887E0,5.165583E0,1.0439795E1,5.7714643E0,1.9423662E0,7.3865523E0,2.9876835E1,1.6759148E1,3.8872647E0,1.068273E0,1.0075113E0,2.6775906E0,9.456378E0,1.0896374E1,3.061171E0,4.3742948E0,6.727355E0,1.2997124E0,1.0070776E0,4.045992E0,1.1195915E0,2.2474997E0,8.192294E0,1.7110989E0,4.060365E0,4.0597386E0,3.326814E0,6.330757E0,2.3546078E1,3.0360236E0,1.37231245E1,2.845725E0,1.0415395E0,2.833004E0,6.623374E0,4.867109E0,6.0292645E0,2.2317996E0,4.4955554E0],"tree_param":{"num_deleted":"0","num_feature":"6","num_nodes":"71","size_leaf_vector":"1"}},{"base_weights":[3.075943E-2,-2.8811595E-1,2.5227928E-1,-4.7670358E-1,3.2245344E-1,1.4537147E-1,6.5745676E-1,-7.841966E-1,-8.2512135E-3,1.0782718E-1,7.414632E-1,2.8806737E-2,7.136225E-1,4.1751856E-1,1.0315994E-1,2.5812779E-2,-8.550214E-1,1.3962537E-1,-5.756811E-1,3.9544478E-1,-6.94069E-2,1.0312362E-1,8.794072E-5,-3.446913E-1,2.1625374E-1,9.1088784E-1,3.1826046E-1,1.6878925E-1,1.0167354E-1,-9.5595E-2,-4.5579052E-1,2.566974E-1,-6.491172E-2,-5.8770045E-3,-7.285919E-2,-5.9162034E-4,5.3624433E-1,-7.1773595E-1,2.2505524E-2,9.046651E-1,5.674833E-2,1.084327E-2,1.0549446E-1,-1.4748949E-1,1.00749515E-1,5.731697E-1,-7.825879E-2,3.6127377E-2,-6.7951754E-2,8.423813E-2,6.492061E-3,-3.5657108E-2,3.239106E-2,7.961726E-2,1.4293928E-3,9.337996E-3,-9.010952E-2,-3.208276E-2,4.523921E-2,1.08557284E-1,5.5590137E-3,-1.3005952E-2,3.3469524E-2,3.0376518E-2,-6.308413E-2,1.15950264E-1,-5.4549973E-2,-7.933171E-2,3.4232218E-2],"categories":[],"categories_nodes":[],"categories_segments":[],"categories_sizes":[],"default_left":[0,0,0,0,0,0,0,0,0,0,0,0,0,0,0,0,0,0,0,0,0,0,0,0,0,0,0,0,0,0,0,0,0,0,0,0,0,0,0,0,0,0,0,0,0,0,0,0,0,0,0,0,0,0,0,0,0,0,0,0,0,0,0,0,0,0,0,0,0],"id":21,"left_children":[1,3,5,7,9,11,13,15,17,19,21,23,25,27,-1,-1,29,31,33,35,-1,-1,-1,37,39,41,43,45,-1,-1,47,49,-1,-1,-1,51,53,55,57,59,61,-1,-1,63,-1,65,67,-1,-1,-1,-1,-1,-1,-1,-1,-1,-1,-1,-1,-1,-1,-1,-1,-1,-1,-1,-1,-1,-1],"loss_changes":[1.0168135E1,6.9533925E0,3.5805736E0,6.5506105E0,1.2269169E0,4.5123224E0,1.1343355E0,2.2486858E0,1.6788316E0,2.7607234E0,1.0189037E0,4.123073E0,6.1528015E-1,1.6618831E0,0E0,0E0,6.1011696E-1,1.6363347E0,2.8388774E-1,4.7825956E-1,0E0,0E0,0E0,2.7159295E0,4.2440104E0,7.185979E-1,1.88216E0,1.0331162E0,0E0,0E0,1.5522963E0,1.582477E0,0E0,0E0,0E0,4.9056768E-1,8.46627E-1,1.542716E0,1.7542167E0,1.0596905E0,1.7479514E0,0E0,0E0,1.0847939E0,0E0,3.1720176E0,2.3829577E0,0E0,0E0,0E0,0E0,0E0,0E0,0E0,0E0,0E0,0E0,0E0,0E0,0E0,0E0,0E0,0E0,0E0,0E0,0E0,0E0,0E0,0E0],"parents":[2147483647,0,0,1,1,2,2,3,3,4,4,5,5,6,6,7,7,8,8,9,9,10,10,11,11,12,12,13,13,16,16,17,17,18,18,19,19,23,23,24,24,25,25,26,26,27,27,30,30,31,31,35,35,36,36,37,37,38,38,39,39,40,40,43,43,45,45,46,46],"right_children":[2,4,6,8,10,12,14,16,18,20,22,24,26,28,-1,-1,30,32,34,36,-1,-1,-1,38,40,42,44,46,-1,-1,48,50,-1,-1,-1,52,54,56,58,60,62,-1,-1,64,-1,66,68,-1,-1,-1,-1,-1,-1,-1,-1,-1,-1,-1,-1,-1,-1,-1,-1,-1,-1,-1,-1,-1,-1],"split_conditions":[4.51E1,1.854E3,2.07E2,2.03E2,1.99E2,6.37E1,5.28E1,1.372E3,4.2E1,1.58E1,3.008E2,3.006E2,1E0,2.26E2,1.0315994E-1,2.5812779E-2,1.63E2,1.739E3,2.09E2,4.6E1,-6.94069E-2,1.0312362E-1,8.794072E-5,5.57E1,3.104E2,1.246E3,3.011E2,4.81E1,1.0167354E-1,-9.5595E-2,2.91E1,3.11E1,-6.491172E-2,-5.8770045E-3,-7.285919E-2,3.013E2,3.005E2,4.65E1,1.76E2,1.376E3,3.026E2,1.084327E-2,1.0549446E-1,2.991E2,1.00749515E-1,1.407E3,4.97E1,3.6127377E-2,-6.7951754E-2,8.423813E-2,6.492061E-3,-3.5657108E-2,3.239106E-2,7.961726E-2,1.4293928E-3,9.337996E-3,-9.010952E-2,-3.208276E-2,4.523921E-2,1.08557284E-1,5.5590137E-3,-1.3005952E-2,3.3469524E-2,3.0376518E-2,-6.308413E-2,1.15950264E-1,-5.4549973E-2,-7.933171E-2,3.4232218E-2],"split_indices":[4,3,5,5,5,4,4,3,4,4,1,1,0,5,0,0,5,3,5,5,0,0,0,4,2,3,1,4,0,0,4,4,0,0,0,1,1,4,5,3,1,0,0,1,0,3,4,0,0,0,0,0,0,0,0,0,0,0,0,0,0,0,0,0,0,0,0,0,0],"split_type":[0,0,0,0,0,0,0,0,0,0,0,0,0,0,0,0,0,0,0,0,0,0,0,0,0,0,0,0,0,0,0,0,0,0,0,0,0,0,0,0,0,0,0,0,0,0,0,0,0,0,0,0,0,0,0,0,0,0,0,0,0,0,0,0,0,0,0,0,0],"sum_hessian":[1.4191968E2,5.8052753E1,8.3866936E1,4.4520786E1,1.3531965E1,6.743318E1,1.6433748E1,2.6471094E1,1.8049692E1,9.779845E0,3.75212E0,5.6827015E1,1.0606171E1,1.1301814E1,5.131933E0,1.5159755E0,2.495512E1,1.4916319E1,3.1333735E0,7.57115E0,2.208696E0,2.4148014E0,1.3373187E0,1.8709158E1,3.8117855E1,6.205842E0,4.400329E0,8.892362E0,2.4094527E0,1.880627E1,6.148848E0,1.3575826E1,1.3404933E0,1.03133E0,2.1020434E0,2.2469108E0,5.3242393E0,8.807132E0,9.902025E0,6.291708E0,3.1826147E1,1.2112712E0,4.9945707E0,3.094937E0,1.3053921E0,2.8717182E0,6.0206437E0,1.1895914E0,4.9592566E0,2.5119262E0,1.1063899E1,1.0243605E0,1.2225502E0,3.2035232E0,2.1207159E0,1.7143197E0,7.092812E0,5.64627E0,4.2557554E0,4.9570093E0,1.3346983E0,1.9351854E1,1.2474294E1,1.7927654E0,1.3021717E0,1.8602144E0,1.0115037E0,1.9015123E0,4.1191316E0],"tree_param":{"num_deleted":"0","num_feature":"6","num_nodes":"69","size_leaf_vector":"1"}},{"base_weights":[3.0493677E-2,-2.516561E-1,2.5408685E-1,3.755441E-1,-3.9010224E-1,1.7117628E-1,6.962857E-1,-7.757675E-2,5.8795696E-1,-7.203705E-1,1.6153159E-2,4.5642704E-2,5.995415E-1,8.6389977E-1,3.5585636E-1,4.0804993E-2,-6.046949E-2,1.2303952E-1,6.540294E-2,2.720597E-1,-8.4990674E-1,5.112469E-1,-1.3152944E-1,-3.2788208E-1,2.2449967E-1,3.6948568E-1,9.62516E-2,1.3481088E-2,9.964158E-2,-8.746632E-2,9.8192394E-2,3.3427012E-1,-4.755935E-2,-2.586633E-2,6.0697354E-2,-4.4103965E-1,-9.129731E-1,-3.8208526E-2,1.0658121E0,-5.372919E-1,1.6502215E-1,-7.6815516E-1,2.1547545E-2,7.790435E-1,6.157088E-2,-2.9033074E-2,5.2972806E-1,3.644363E-2,-7.013174E-2,-5.018541E-3,5.516342E-2,4.599012E-2,-7.7021696E-2,-9.551303E-2,-3.2553356E-2,1.3106148E-1,3.0899072E-2,-8.5621804E-2,8.0697995E-5,8.7229304E-2,-6.941872E-3,-1.0621543E-2,-8.709589E-2,-2.9829068E-2,4.1649662E-2,9.5377214E-2,-2.2088943E-2,-1.4843746E-2,3.5078656E-2,8.40449E-2,1.5456974E-2],"categories":[],"categories_nodes":[],"categories_segments":[],"categories_sizes":[],"default_left":[0,0,0,0,0,0,0,0,0,0,0,0,0,0,0,0,0,0,0,0,0,0,0,0,0,0,0,0,0,0,0,0,0,0,0,0,0,0,0,0,0,0,0,0,0,0,0,0,0,0,0,0,0,0,0,0,0,0,0,0,0,0,0,0,0,0,0,0,0,0,0],"id":22,"left_children":[1,3,5,7,9,11,13,15,17,19,21,23,25,27,29,-1,-1,-1,31,33,35,37,39,41,43,45,-1,-1,-1,47,-1,49,-1,-1,-1,51,53,-1,55,57,59,61,63,65,67,-1,69,-1,-1,-1,-1,-1,-1,-1,-1,-1,-1,-1,-1,-1,-1,-1,-1,-1,-1,-1,-1,-1,-1,-1,-1],"loss_changes":[8.869907E0,5.548764E0,2.7541208E0,1.1774212E0,6.915504E0,3.5928628E0,3.8005257E-1,1.4336165E0,2.646386E0,3.882677E0,1.8257896E0,3.6242523E0,9.1157436E-1,5.779996E-1,1.6610872E0,0E0,0E0,0E0,9.6413785E-1,8.745377E-1,2.5144768E-1,3.246217E0,2.4135075E0,2.726542E0,3.2527633E0,1.3074646E0,0E0,0E0,0E0,1.4319937E0,0E0,3.857648E-1,0E0,0E0,0E0,1.9332793E0,2.1018219E-1,0E0,2.98985E-1,1.4410615E0,2.0382974E0,4.397545E-1,1.4876645E0,1.6451359E0,1.8330235E0,0E0,9.3475795E-1,0E0,0E0,0E0,0E0,0E0,0E0,0E0,0E0,0E0,0E0,0E0,0E0,0E0,0E0,0E0,0E0,0E0,0E0,0E0,0E0,0E0,0E0,0E0,0E0],"parents":[2147483647,0,0,1,1,2,2,3,3,4,4,5,5,6,6,7,7,8,8,9,9,10,10,11,11,12,12,13,13,14,14,18,18,19,19,20,20,21,21,22,22,23,23,24,24,25,25,29,29,31,31,35,35,36,36,38,38,39,39,40,40,41,41,42,42,43,43,44,44,46,46],"right_children":[2,4,6,8,10,12,14,16,18,20,22,24,26,28,30,-1,-1,-1,32,34,36,38,40,42,44,46,-1,-1,-1,48,-1,50,-1,-1,-1,52,54,-1,56,58,60,62,64,66,68,-1,70,-1,-1,-1,-1,-1,-1,-1,-1,-1,-1,-1,-1,-1,-1,-1,-1,-1,-1,-1,-1,-1,-1,-1,-1],"split_conditions":[4.63E1,2.01E1,6.37E1,3.095E2,1.98E2,2.07E2,1E0,3.086E2,3.105E2,1.373E3,3.09E2,3.006E2,5.28E1,1.246E3,3.011E2,4.0804993E-2,-6.046949E-2,1.2303952E-1,1.44E2,3.021E2,2.91E1,2.974E2,3.105E2,5.57E1,3.105E2,1.36E3,9.62516E-2,1.3481088E-2,9.964158E-2,3.004E2,9.8192394E-2,2.3E1,-4.755935E-2,-2.586633E-2,6.0697354E-2,1.723E3,4.51E1,-3.8208526E-2,1.543E3,2.21E2,3.006E2,4.73E1,1.76E2,1.38E3,3.026E2,-2.9033074E-2,3.004E2,3.644363E-2,-7.013174E-2,-5.018541E-3,5.516342E-2,4.599012E-2,-7.7021696E-2,-9.551303E-2,-3.2553356E-2,1.3106148E-1,3.0899072E-2,-8.5621804E-2,8.0697995E-5,8.7229304E-2,-6.941872E-3,-1.0621543E-2,-8.709589E-2,-2.9829068E-2,4.1649662E-2,9.5377214E-2,-2.2088943E-2,-1.4843746E-2,3.5078656E-2,8.40449E-2,1.5456974E-2],"split_indices":[4,4,4,2,5,5,0,2,2,3,2,1,4,3,1,0,0,0,5,1,4,1,2,4,2,3,0,0,0,1,0,5,0,0,0,3,4,0,3,5,1,4,5,3,1,0,1,0,0,0,0,0,0,0,0,0,0,0,0,0,0,0,0,0,0,0,0,0,0,0,0],"split_type":[0,0,0,0,0,0,0,0,0,0,0,0,0,0,0,0,0,0,0,0,0,0,0,0,0,0,0,0,0,0,0,0,0,0,0,0,0,0,0,0,0,0,0,0,0,0,0,0,0,0,0,0,0,0,0,0,0,0,0,0,0,0,0,0,0,0,0,0,0,0,0],"sum_hessian":[1.3858498E2,6.121409E1,7.737089E1,1.0759219E1,5.0454872E1,6.632274E1,1.1048155E1,3.636529E0,7.12269E0,2.7403666E1,2.3051205E1,5.214736E1,1.4175375E1,6.3727736E0,4.6753807E0,2.0103273E0,1.6262016E0,2.58727E0,4.5354204E0,3.036851E0,2.4366816E1,4.730568E0,1.8320637E1,1.661513E1,3.553223E1,9.911399E0,4.2639756E0,1.2904074E0,5.0823665E0,3.240824E0,1.4345568E0,3.2849636E0,1.2504568E0,1.2630398E0,1.7738111E0,4.324408E0,2.0042406E1,1.9309988E0,2.7995694E0,7.393094E0,1.0927543E1,6.821672E0,9.793456E0,7.210183E0,2.8322048E1,1.7780893E0,8.133309E0,2.1006713E0,1.1401527E0,1.4642457E0,1.8207179E0,1.050934E0,3.273474E0,1.8116379E1,1.9260285E0,1.562443E0,1.2371262E0,4.2706995E0,3.1223946E0,2.0430994E0,8.884443E0,1.19035E0,5.631322E0,5.54651E0,4.2469463E0,6.1769795E0,1.0332035E0,1.668982E1,1.163223E1,3.7703252E0,4.3629847E0],"tree_param":{"num_deleted":"0","num_feature":"6","num_nodes":"71","size_leaf_vector":"1"}},{"base_weights":[3.0397927E-2,-1.3049851E-1,3.7807325E-1,-3.216296E-1,1.6968752E-1,1.927472E-1,7.404287E-1,1.0024007E-1,-5.312701E-1,2.2458105E-1,-2.7619046E-1,6.8555005E-2,7.0090055E-1,9.039121E-1,3.0500156E-1,-6.9105256E-1,3.4111896E-1,3.3455896E-1,-7.509313E-1,6.903166E-2,4.5927927E-1,1.315984E-1,-6.751228E-2,-1.9249961E-1,3.832337E-1,-1.0292579E-3,8.900335E-2,9.311321E-3,1.0162318E0,-3.518039E-2,7.7739194E-2,-2.1519309E-2,-7.7799015E-2,5.027539E-1,-6.613524E-2,4.608551E-1,-3.03025E-2,-3.3684865E-1,-8.4490967E-1,-8.628561E-2,5.3445166E-1,8.2232736E-2,2.9105932E-1,4.4973798E-2,-2.503548E-2,2.0840546E-2,-7.670012E-2,8.549199E-1,5.5079936E-4,3.4681987E-2,1.1176016E-1,-3.5603017E-2,4.2892557E-2,2.3526931E-2,1.0599952E-1,8.663737E-2,1.5661648E-2,-7.8225456E-2,2.3426596E-2,-3.9843176E-2,-9.532373E-2,8.337628E-2,-2.050901E-2,7.515591E-2,-1.8810263E-2,6.7258656E-2,4.9769212E-3,-4.9392294E-2,4.4813905E-2,3.13324E-2,9.88175E-2,-6.350004E-2,3.5497542E-2],"categories":[],"categories_nodes":[],"categories_segments":[],"categories_sizes":[],"default_left":[0,0,0,0,0,0,0,0,0,0,0,0,0,0,0,0,0,0,0,0,0,0,0,0,0,0,0,0,0,0,0,0,0,0,0,0,0,0,0,0,0,0,0,0,0,0,0,0,0,0,0,0,0,0,0,0,0,0,0,0,0,0,0,0,0,0,0,0,0,0,0,0,0],"id":23,"left_children":[1,3,5,7,9,11,13,15,17,19,21,23,25,27,29,31,33,35,37,39,41,43,-1,45,47,-1,-1,-1,49,51,-1,-1,-1,53,-1,55,-1,57,59,61,63,-1,65,-1,-1,67,-1,69,71,-1,-1,-1,-1,-1,-1,-1,-1,-1,-1,-1,-1,-1,-1,-1,-1,-1,-1,-1,-1,-1,-1,-1,-1],"loss_changes":[7.686773E0,5.4523673E0,2.775148E0,5.167456E0,9.7382843E-1,1.8514874E0,7.458787E-1,4.0550194E0,7.6283865E0,1.199356E0,8.261252E-1,2.151826E0,7.897353E-1,8.091707E-1,8.9939755E-1,3.970933E-2,2.9300635E0,8.2741624E-1,9.313793E-1,1.5971963E0,5.707145E-1,4.866199E-1,0E0,1.792172E0,2.1303115E0,0E0,0E0,0E0,1.9705486E-1,7.649428E-1,0E0,0E0,0E0,1.8929899E0,0E0,7.927829E-1,0E0,2.0765865E0,8.1988907E-1,2.0236406E0,1.0053983E0,0E0,9.434525E-1,0E0,0E0,2.759914E0,0E0,7.192683E-2,1.9188191E0,0E0,0E0,0E0,0E0,0E0,0E0,0E0,0E0,0E0,0E0,0E0,0E0,0E0,0E0,0E0,0E0,0E0,0E0,0E0,0E0,0E0,0E0,0E0,0E0],"parents":[2147483647,0,0,1,1,2,2,3,3,4,4,5,5,6,6,7,7,8,8,9,9,10,10,11,11,12,12,13,13,14,14,15,15,16,16,17,17,18,18,19,19,20,20,21,21,23,23,24,24,28,28,29,29,33,33,35,35,37,37,38,38,39,39,40,40,42,42,45,45,47,47,48,48],"right_children":[2,4,6,8,10,12,14,16,18,20,22,24,26,28,30,32,34,36,38,40,42,44,-1,46,48,-1,-1,-1,50,52,-1,-1,-1,54,-1,56,-1,58,60,62,64,-1,66,-1,-1,68,-1,70,72,-1,-1,-1,-1,-1,-1,-1,-1,-1,-1,-1,-1,-1,-1,-1,-1,-1,-1,-1,-1,-1,-1,-1,-1],"split_conditions":[5.37E1,2.03E2,1.76E2,1.38E3,3.028E2,6.68E1,1E0,3.017E2,1.58E1,2.18E2,1.51E3,1.356E3,1.246E3,5.53E1,6.07E1,1.332E3,3.12E2,2E0,1.44E3,3.016E2,1.4E3,2.14E2,-6.751228E-2,3.116E2,1.378E3,-1.0292579E-3,8.900335E-2,9.311321E-3,1.9E2,1.376E3,7.7739194E-2,-2.1519309E-2,-7.7799015E-2,3.027E2,-6.613524E-2,2.986E2,-3.03025E-2,1.416E3,2.91E1,2.04E2,3.114E2,8.2232736E-2,3.06E1,4.4973798E-2,-2.503548E-2,3.014E2,-7.670012E-2,6.6E1,5.85E1,3.4681987E-2,1.1176016E-1,-3.5603017E-2,4.2892557E-2,2.3526931E-2,1.0599952E-1,8.663737E-2,1.5661648E-2,-7.8225456E-2,2.3426596E-2,-3.9843176E-2,-9.532373E-2,8.337628E-2,-2.050901E-2,7.515591E-2,-1.8810263E-2,6.7258656E-2,4.9769212E-3,-4.9392294E-2,4.4813905E-2,3.13324E-2,9.88175E-2,-6.350004E-2,3.5497542E-2],"split_indices":[4,5,5,3,1,4,0,1,4,5,3,3,3,4,4,3,2,0,3,1,3,5,0,2,3,0,0,0,5,3,0,0,0,1,0,1,0,3,4,5,2,0,4,0,0,1,0,5,4,0,0,0,0,0,0,0,0,0,0,0,0,0,0,0,0,0,0,0,0,0,0,0,0],"split_type":[0,0,0,0,0,0,0,0,0,0,0,0,0,0,0,0,0,0,0,0,0,0,0,0,0,0,0,0,0,0,0,0,0,0,0,0,0,0,0,0,0,0,0,0,0,0,0,0,0,0,0,0,0,0,0,0,0,0,0,0,0,0,0,0,0,0,0,0,0,0,0,0,0],"sum_hessian":[1.3552972E2,9.307932E1,4.2450397E1,5.6826168E1,3.6253155E1,2.9099463E1,1.3350938E1,1.9037642E1,3.7788525E1,3.2721073E1,3.532083E0,2.4296364E1,4.803098E0,8.92433E0,4.4266076E0,4.006691E0,1.5030951E1,7.541087E0,3.0247438E1,2.0457031E1,1.2264042E1,2.0780365E0,1.4540465E0,1.3491884E1,1.080448E1,1.2076339E0,3.5954645E0,1.3084022E0,7.615927E0,3.111473E0,1.3151348E0,1.1557678E0,2.850923E0,1.337319E1,1.6577609E0,6.5256386E0,1.0154487E0,6.442988E0,2.3804451E1,1.5949173E1,4.5078588E0,2.65205E0,9.611992E0,1.0369025E0,1.041134E0,1.0541165E1,2.9507186E0,4.286733E0,6.517746E0,1.5830871E0,6.0328403E0,1.9773458E0,1.1341274E0,9.99678E0,3.3764093E0,2.0052154E0,4.520423E0,3.4121737E0,3.030814E0,5.561297E0,1.8243155E1,1.1357479E0,1.4813425E1,3.4354577E0,1.072401E0,3.0313573E0,6.580634E0,4.7105174E0,5.830648E0,1.508197E0,2.7785363E0,2.0500236E0,4.467722E0],"tree_param":{"num_deleted":"0","num_feature":"6","num_nodes":"73","size_leaf_vector":"1"}},{"base_weights":[3.0474389E-2,-1.2106732E-1,3.563133E-1,-3.0709547E-1,1.581621E-1,1.8004228E-1,7.0474046E-1,9.0412036E-2,-5.1048285E-1,2.091223E-1,-2.640244E-1,6.296625E-2,6.6463155E-1,8.603131E-1,2.943843E-1,-6.7191297E-1,3.1625563E-1,3.0957618E-1,-7.3269343E-1,1.5411311E-1,9.332615E-2,-6.541583E-2,1.3271788E-1,-1.8340994E-1,3.551152E-1,-9.731291E-4,8.500561E-2,3.5967398E-1,1.11349694E-1,-3.0303674E-2,7.497729E-2,-2.0532828E-2,-7.611511E-2,8.654497E-1,3.8217236E-3,4.2797044E-1,-2.8911693E-2,-3.197403E-1,-8.3144635E-1,5.111309E-1,3.425355E-2,4.6984788E-2,-2.6320983E-2,1.8325562E-2,-7.379234E-2,7.948741E-1,-3.7717344E-3,-3.56717E-2,8.293625E-2,-3.3685323E-2,4.0380795E-2,9.801508E-2,2.0102533E-2,-8.490822E-2,2.9945979E-2,6.1348397E-2,-6.067169E-3,-7.677661E-2,2.1271793E-2,-3.7759047E-2,-9.478958E-2,1.9033095E-2,1.08488515E-1,-5.548644E-2,1.9333746E-2,